svm_type c_svc
kernel_type rbf
gamma 1e-005
nr_class 2
total_sv 1453
rho 0.445475
label 1 0
probA -2.86574
probB 0.633979
nr_sv 540 913
SV
1 1:25 2:25 3:25 4:25 5:25 6:25 7:25 8:25 9:25 10:25 11:25 12:25 13:25 14:25 15:25 16:25 17:25 18:25 19:25 20:25 21:25 22:25 23:25 24:25 25:25 26:25 27:25 28:25 29:25 30:25 31:25 32:25 33:25 34:25 35:25 36:25 37:25 38:25 39:25 40:25 41:25 42:25 43:25 44:25 45:25 46:25 47:25 48:25 49:25 50:25 51:25 52:25 53:25 54:25 55:25 56:25 57:25 58:25 59:25 60:25 61:25 62:25 63:25 64:25 65:25 66:25 67:25 68:25 69:25 70:25 71:25 72:25 73:25 74:25 75:25 76:25 77:25 78:25 79:25 80:25 81:25 82:25 83:25 84:25 85:25 86:25 87:25 88:25 89:25 90:25 91:25 92:25 93:25 94:25 95:25 96:25 97:25 98:25 99:25 100:25 101:25 102:25 103:25 104:25 105:25 106:25 107:25 108:25 109:25 110:25 111:25 112:25 113:25 114:25 115:25 116:25 117:25 118:25 119:25 120:25 121:25 122:25 123:25 124:25 125:25 126:25 127:25 128:25 129:25 130:25 131:25 132:25 133:25 134:25 135:25 136:25 137:25 138:25 139:25 140:25 141:25 142:25 143:25 144:25 145:25 146:25 147:25 148:25 149:25 150:25 151:25 152:25 153:25 154:25 155:25 156:25 157:25 158:25 159:25 160:25 161:25 162:25 163:25 164:25 165:25 166:25 167:25 168:25 169:25 170:25 171:25 172:37 173:25 174:25 175:25 176:25 177:25 178:25 179:25 180:25 181:25 182:25 183:25 184:25 185:25 186:25 187:25 188:25 189:25 190:25 191:125 192:25 193:25 194:25 195:25 196:25 197:25 198:25 199:25 200:25 201:25 202:25 203:25 204:25 205:25 206:25 207:25 208:25 209:25 210:75 211:137 212:25 213:25 214:25 215:25 216:25 217:25 218:25 219:25 220:25 221:25 222:25 223:25 224:25 225:25 226:25 227:25 228:25 229:25 230:25 231:25 232:25 233:25 234:25 235:25 236:25 237:25 238:25 239:25 240:37 241:25 242:25 243:25 244:25 245:25 246:25 247:25 248:25 249:25 250:25 251:25 252:25 253:25 254:25 255:25 256:25 257:25 258:50 259:174 260:25 261:25 262:25 263:25 264:25 265:25 266:25 267:25 268:25 269:25 270:25 271:25 272:25 273:25 274:25 275:25 276:25 277:25 278:212 279:62 280:25 281:25 282:25 283:25 284:25 285:25 286:25 287:25 288:25 289:25 290:25 291:25 292:25 293:25 294:25 295:25 296:25 297:37 298:212 299:25 300:25 301:25 302:25 303:25 304:25 305:25 306:25 307:25 308:25 309:25 310:25 311:25 312:25 313:25 314:25 315:25 316:25 317:25 318:25 319:25 320:25 321:25 322:25 323:25 324:25 325:25 326:25 327:25 328:25 329:25 330:25 331:25 332:25 333:25 334:25 335:25 336:25 337:25 338:25 339:25 340:25 341:25 342:25 343:25 344:25 345:25 346:25 347:25 348:25 349:25 350:25 351:25 352:25 353:25 354:25 355:25 356:25 357:25 358:25 359:25 360:25 361:25 362:25 363:25 364:25 365:25 366:25 367:25 368:25 369:25 370:25 371:25 372:25 373:25 374:25 375:25 376:25 377:25 378:25 379:25 380:25 381:25 382:25 383:25 384:25 385:25 386:25 387:25 388:25 389:25 390:25 391:25 392:25 393:25 394:25 395:25 396:25 397:25 398:25 399:25 400:25 
0.2688830884565922 1:25 2:25 3:25 4:25 5:25 6:25 7:25 8:25 9:25 10:25 11:25 12:25 13:25 14:25 15:25 16:25 17:25 18:25 19:25 20:25 21:25 22:25 23:25 24:25 25:25 26:25 27:25 28:25 29:25 30:25 31:25 32:25 33:25 34:25 35:25 36:25 37:25 38:25 39:25 40:25 41:25 42:25 43:25 44:25 45:25 46:25 47:25 48:25 49:25 50:25 51:25 52:25 53:25 54:25 55:25 56:25 57:25 58:25 59:25 60:25 61:25 62:25 63:25 64:25 65:25 66:25 67:25 68:25 69:25 70:25 71:25 72:25 73:25 74:25 75:25 76:25 77:25 78:25 79:25 80:25 81:25 82:25 83:25 84:25 85:25 86:25 87:25 88:25 89:25 90:25 91:25 92:25 93:25 94:25 95:25 96:25 97:25 98:25 99:25 100:25 101:25 102:25 103:25 104:25 105:25 106:25 107:25 108:25 109:25 110:25 111:25 112:25 113:25 114:25 115:25 116:25 117:25 118:25 119:25 120:25 121:25 122:25 123:25 124:25 125:25 126:25 127:25 128:25 129:25 130:25 131:25 132:37 133:25 134:25 135:25 136:25 137:25 138:25 139:25 140:25 141:25 142:25 143:25 144:25 145:25 146:25 147:25 148:25 149:25 150:25 151:37 152:37 153:50 154:37 155:25 156:25 157:25 158:25 159:25 160:25 161:25 162:25 163:25 164:25 165:25 166:25 167:25 168:25 169:25 170:25 171:25 172:50 173:112 174:25 175:25 176:25 177:25 178:25 179:25 180:25 181:25 182:25 183:25 184:25 185:25 186:25 187:25 188:25 189:25 190:37 191:25 192:212 193:50 194:25 195:25 196:25 197:25 198:25 199:25 200:25 201:25 202:25 203:25 204:25 205:25 206:25 207:25 208:25 209:25 210:25 211:37 212:37 213:25 214:25 215:25 216:25 217:25 218:25 219:25 220:25 221:25 222:25 223:25 224:25 225:25 226:25 227:25 228:25 229:25 230:25 231:25 232:25 233:25 234:25 235:25 236:25 237:25 238:25 239:25 240:25 241:25 242:25 243:25 244:25 245:25 246:25 247:25 248:25 249:25 250:25 251:25 252:25 253:25 254:25 255:25 256:25 257:25 258:25 259:25 260:25 261:25 262:25 263:25 264:25 265:25 266:25 267:25 268:25 269:25 270:25 271:25 272:25 273:25 274:25 275:25 276:25 277:25 278:25 279:25 280:25 281:25 282:25 283:25 284:25 285:25 286:25 287:25 288:25 289:25 290:25 291:25 292:25 293:25 294:25 295:25 296:25 297:25 298:25 299:25 300:25 301:25 302:25 303:25 304:25 305:25 306:25 307:25 308:25 309:25 310:25 311:25 312:25 313:25 314:25 315:25 316:25 317:25 318:25 319:25 320:25 321:25 322:25 323:25 324:25 325:25 326:25 327:25 328:25 329:25 330:25 331:25 332:25 333:25 334:25 335:25 336:25 337:25 338:25 339:25 340:25 341:25 342:25 343:25 344:25 345:25 346:25 347:25 348:25 349:25 350:25 351:25 352:25 353:25 354:25 355:25 356:25 357:25 358:25 359:25 360:25 361:25 362:25 363:25 364:25 365:25 366:25 367:25 368:25 369:25 370:25 371:25 372:25 373:25 374:25 375:25 376:25 377:25 378:25 379:25 380:25 381:25 382:25 383:25 384:25 385:25 386:25 387:25 388:25 389:25 390:25 391:25 392:25 393:25 394:25 395:25 396:25 397:25 398:25 399:25 400:25 
1 1:25 2:25 3:25 4:25 5:25 6:25 7:25 8:25 9:25 10:25 11:25 12:25 13:25 14:25 15:25 16:25 17:25 18:25 19:25 20:25 21:25 22:25 23:25 24:25 25:25 26:25 27:25 28:25 29:25 30:25 31:25 32:25 33:25 34:25 35:25 36:25 37:25 38:25 39:25 40:25 41:25 42:25 43:25 44:50 45:25 46:25 47:25 48:25 49:25 50:25 51:25 52:25 53:25 54:25 55:25 56:25 57:25 58:25 59:25 60:25 61:25 62:25 63:25 64:25 65:25 66:25 67:25 68:25 69:25 70:25 71:25 72:25 73:37 74:62 75:25 76:25 77:25 78:25 79:25 80:25 81:25 82:25 83:75 84:255 85:25 86:37 87:25 88:25 89:25 90:25 91:25 92:25 93:25 94:25 95:25 96:25 97:25 98:25 99:25 100:25 101:25 102:25 103:224 104:25 105:25 106:25 107:25 108:25 109:25 110:25 111:25 112:25 113:75 114:125 115:25 116:25 117:25 118:25 119:25 120:25 121:25 122:25 123:62 124:25 125:25 126:25 127:25 128:25 129:25 130:25 131:25 132:112 133:112 134:112 135:25 136:25 137:25 138:25 139:25 140:25 141:25 142:25 143:37 144:25 145:25 146:25 147:25 148:25 149:25 150:25 151:25 152:112 153:75 154:25 155:25 156:25 157:25 158:25 159:25 160:25 161:25 162:25 163:25 164:25 165:25 166:25 167:25 168:25 169:25 170:25 171:25 172:37 173:37 174:25 175:25 176:25 177:25 178:25 179:25 180:25 181:25 182:25 183:25 184:25 185:25 186:25 187:25 188:25 189:25 190:25 191:25 192:100 193:25 194:25 195:25 196:25 197:25 198:25 199:25 200:25 201:25 202:25 203:25 204:25 205:25 206:25 207:25 208:25 209:25 210:25 211:75 212:75 213:25 214:25 215:25 216:25 217:25 218:25 219:25 220:25 221:25 222:25 223:25 224:25 225:25 226:25 227:25 228:25 229:25 230:37 231:174 232:25 233:25 234:25 235:25 236:25 237:25 238:25 239:25 240:25 241:25 242:25 243:25 244:25 245:25 246:25 247:25 248:25 249:25 250:25 251:25 252:25 253:25 254:25 255:25 256:25 257:25 258:25 259:25 260:25 261:25 262:25 263:25 264:25 265:25 266:25 267:25 268:25 269:25 270:25 271:25 272:25 273:25 274:25 275:25 276:25 277:25 278:25 279:25 280:25 281:25 282:25 283:25 284:25 285:25 286:25 287:25 288:25 289:25 290:25 291:25 292:25 293:25 294:25 295:25 296:25 297:25 298:25 299:25 300:25 301:25 302:25 303:25 304:25 305:25 306:25 307:25 308:25 309:25 310:25 311:25 312:25 313:25 314:25 315:25 316:25 317:25 318:25 319:25 320:25 321:25 322:25 323:25 324:25 325:25 326:25 327:25 328:25 329:25 330:25 331:25 332:25 333:25 334:25 335:25 336:25 337:25 338:25 339:25 340:25 341:25 342:25 343:25 344:25 345:25 346:25 347:25 348:25 349:25 350:25 351:25 352:25 353:25 354:25 355:25 356:25 357:25 358:25 359:25 360:25 361:25 362:25 363:25 364:25 365:25 366:25 367:25 368:25 369:25 370:25 371:25 372:25 373:25 374:25 375:25 376:25 377:25 378:25 379:25 380:25 381:25 382:25 383:25 384:25 385:25 386:25 387:25 388:25 389:25 390:25 391:25 392:25 393:25 394:25 395:25 396:25 397:25 398:25 399:25 400:25 
1 1:25 2:25 3:25 4:25 5:25 6:25 7:25 8:25 9:25 10:25 11:25 12:25 13:25 14:25 15:25 16:25 17:25 18:25 19:25 20:25 21:25 22:25 23:25 24:25 25:25 26:25 27:25 28:25 29:25 30:25 31:25 32:25 33:25 34:25 35:25 36:25 37:25 38:25 39:25 40:25 41:25 42:25 43:25 44:25 45:25 46:25 47:25 48:25 49:25 50:25 51:25 52:25 53:25 54:25 55:25 56:25 57:25 58:25 59:25 60:25 61:25 62:25 63:25 64:25 65:25 66:25 67:25 68:25 69:25 70:25 71:25 72:25 73:25 74:25 75:25 76:25 77:25 78:25 79:25 80:25 81:25 82:25 83:25 84:25 85:25 86:25 87:25 88:25 89:25 90:25 91:25 92:25 93:25 94:25 95:25 96:25 97:25 98:25 99:25 100:25 101:25 102:25 103:25 104:25 105:25 106:25 107:25 108:25 109:25 110:25 111:25 112:25 113:25 114:25 115:25 116:25 117:25 118:25 119:25 120:25 121:25 122:25 123:25 124:25 125:25 126:25 127:25 128:25 129:25 130:25 131:25 132:25 133:25 134:25 135:25 136:25 137:25 138:25 139:25 140:25 141:25 142:25 143:25 144:25 145:25 146:25 147:25 148:25 149:25 150:25 151:25 152:25 153:25 154:25 155:25 156:25 157:25 158:25 159:25 160:25 161:25 162:25 163:25 164:25 165:25 166:25 167:25 168:25 169:25 170:25 171:25 172:25 173:25 174:25 175:25 176:25 177:25 178:25 179:25 180:25 181:25 182:25 183:25 184:25 185:25 186:25 187:25 188:25 189:25 190:25 191:25 192:25 193:25 194:25 195:25 196:25 197:25 198:25 199:25 200:25 201:25 202:25 203:25 204:25 205:25 206:25 207:25 208:25 209:25 210:37 211:62 212:25 213:25 214:25 215:25 216:25 217:25 218:25 219:25 220:25 221:25 222:25 223:25 224:25 225:25 226:25 227:25 228:25 229:25 230:100 231:87 232:25 233:25 234:25 235:25 236:25 237:25 238:25 239:25 240:25 241:25 242:25 243:25 244:25 245:25 246:25 247:25 248:25 249:37 250:50 251:25 252:25 253:25 254:25 255:25 256:25 257:25 258:25 259:25 260:25 261:25 262:25 263:25 264:25 265:25 266:25 267:25 268:25 269:25 270:25 271:25 272:25 273:25 274:25 275:25 276:25 277:25 278:25 279:25 280:25 281:25 282:25 283:25 284:25 285:25 286:25 287:25 288:25 289:25 290:25 291:25 292:25 293:25 294:25 295:25 296:25 297:25 298:25 299:25 300:25 301:25 302:25 303:25 304:25 305:25 306:25 307:25 308:25 309:25 310:25 311:25 312:25 313:25 314:25 315:25 316:25 317:25 318:25 319:25 320:25 321:25 322:25 323:25 324:25 325:25 326:25 327:25 328:25 329:25 330:25 331:25 332:25 333:25 334:25 335:25 336:25 337:25 338:25 339:25 340:25 341:25 342:25 343:25 344:25 345:25 346:25 347:25 348:25 349:25 350:25 351:25 352:25 353:25 354:25 355:25 356:25 357:25 358:25 359:25 360:25 361:25 362:25 363:25 364:25 365:25 366:25 367:25 368:25 369:25 370:25 371:25 372:25 373:25 374:25 375:25 376:25 377:25 378:25 379:25 380:25 381:25 382:25 383:25 384:25 385:25 386:25 387:25 388:25 389:25 390:25 391:25 392:25 393:25 394:25 395:25 396:25 397:25 398:25 399:25 400:25 
0.4417405926309261 1:25 2:25 3:25 4:25 5:25 6:25 7:25 8:25 9:25 10:25 11:25 12:25 13:25 14:25 15:25 16:25 17:25 18:25 19:25 20:25 21:25 22:25 23:25 24:25 25:25 26:25 27:25 28:25 29:25 30:25 31:25 32:25 33:25 34:25 35:25 36:25 37:25 38:25 39:25 40:25 41:25 42:25 43:25 44:25 45:25 46:25 47:25 48:25 49:25 50:25 51:25 52:25 53:25 54:25 55:25 56:25 57:25 58:25 59:25 60:25 61:25 62:25 63:25 64:25 65:25 66:25 67:25 68:25 69:25 70:25 71:25 72:25 73:25 74:25 75:25 76:25 77:25 78:25 79:25 80:25 81:25 82:25 83:25 84:25 85:25 86:25 87:25 88:25 89:25 90:25 91:25 92:25 93:25 94:25 95:25 96:25 97:25 98:25 99:25 100:25 101:25 102:25 103:25 104:25 105:25 106:25 107:25 108:25 109:25 110:25 111:25 112:25 113:25 114:25 115:25 116:25 117:25 118:25 119:25 120:25 121:25 122:25 123:25 124:25 125:25 126:25 127:25 128:25 129:25 130:25 131:25 132:25 133:25 134:25 135:25 136:25 137:25 138:25 139:25 140:25 141:25 142:25 143:25 144:25 145:25 146:25 147:25 148:25 149:25 150:25 151:25 152:25 153:37 154:25 155:37 156:25 157:25 158:25 159:25 160:25 161:25 162:25 163:25 164:25 165:25 166:25 167:25 168:25 169:25 170:25 171:25 172:25 173:37 174:25 175:25 176:25 177:25 178:25 179:25 180:25 181:25 182:25 183:25 184:25 185:25 186:25 187:25 188:25 189:25 190:25 191:25 192:25 193:174 194:212 195:25 196:25 197:25 198:25 199:25 200:25 201:25 202:25 203:25 204:25 205:25 206:25 207:25 208:25 209:25 210:25 211:37 212:162 213:125 214:25 215:25 216:25 217:25 218:25 219:25 220:25 221:25 222:25 223:25 224:25 225:25 226:25 227:25 228:25 229:25 230:25 231:25 232:112 233:174 234:25 235:25 236:25 237:25 238:25 239:25 240:25 241:25 242:25 243:25 244:25 245:25 246:25 247:25 248:25 249:25 250:25 251:37 252:25 253:37 254:25 255:25 256:25 257:25 258:25 259:25 260:25 261:25 262:25 263:25 264:25 265:25 266:25 267:25 268:25 269:25 270:25 271:25 272:25 273:25 274:25 275:25 276:25 277:25 278:25 279:25 280:25 281:25 282:25 283:25 284:25 285:25 286:25 287:25 288:25 289:25 290:25 291:25 292:25 293:25 294:25 295:25 296:25 297:25 298:25 299:25 300:25 301:25 302:25 303:25 304:25 305:25 306:25 307:25 308:25 309:25 310:25 311:25 312:25 313:25 314:25 315:25 316:25 317:25 318:25 319:25 320:25 321:25 322:25 323:25 324:25 325:25 326:25 327:25 328:25 329:25 330:25 331:25 332:25 333:25 334:25 335:25 336:25 337:25 338:25 339:25 340:25 341:25 342:25 343:25 344:25 345:25 346:25 347:25 348:25 349:25 350:25 351:25 352:25 353:25 354:25 355:25 356:25 357:25 358:25 359:25 360:25 361:25 362:25 363:25 364:25 365:25 366:25 367:25 368:25 369:25 370:25 371:25 372:25 373:25 374:25 375:25 376:25 377:25 378:25 379:25 380:25 381:25 382:25 383:25 384:25 385:25 386:25 387:25 388:25 389:25 390:25 391:25 392:25 393:25 394:25 395:25 396:25 397:25 398:25 399:25 400:25 
0.4994048137455047 1:25 2:25 3:25 4:25 5:25 6:25 7:25 8:25 9:25 10:25 11:25 12:25 13:25 14:25 15:25 16:25 17:25 18:25 19:25 20:25 21:25 22:25 23:25 24:25 25:25 26:25 27:25 28:25 29:25 30:25 31:25 32:25 33:25 34:25 35:25 36:25 37:25 38:25 39:25 40:25 41:25 42:25 43:25 44:25 45:25 46:25 47:25 48:25 49:25 50:25 51:25 52:25 53:25 54:25 55:25 56:25 57:25 58:25 59:25 60:25 61:25 62:25 63:25 64:25 65:25 66:25 67:25 68:25 69:25 70:25 71:25 72:25 73:25 74:25 75:25 76:25 77:25 78:25 79:25 80:25 81:25 82:25 83:25 84:25 85:25 86:25 87:25 88:25 89:25 90:25 91:25 92:25 93:25 94:25 95:25 96:25 97:25 98:25 99:25 100:25 101:25 102:25 103:25 104:25 105:25 106:25 107:25 108:25 109:25 110:25 111:25 112:25 113:25 114:25 115:25 116:25 117:25 118:25 119:25 120:25 121:25 122:25 123:25 124:25 125:25 126:25 127:25 128:25 129:25 130:25 131:25 132:25 133:25 134:25 135:25 136:25 137:25 138:25 139:25 140:25 141:25 142:25 143:25 144:25 145:25 146:25 147:25 148:25 149:25 150:25 151:25 152:37 153:25 154:25 155:25 156:25 157:25 158:25 159:25 160:25 161:25 162:25 163:25 164:25 165:25 166:25 167:25 168:25 169:25 170:25 171:25 172:25 173:25 174:25 175:37 176:25 177:25 178:25 179:25 180:25 181:25 182:25 183:25 184:25 185:25 186:25 187:25 188:25 189:25 190:25 191:25 192:87 193:50 194:25 195:25 196:25 197:25 198:25 199:25 200:25 201:25 202:25 203:25 204:25 205:25 206:25 207:25 208:25 209:25 210:25 211:25 212:187 213:224 214:25 215:25 216:25 217:25 218:25 219:25 220:25 221:25 222:25 223:25 224:25 225:25 226:25 227:25 228:25 229:25 230:25 231:212 232:249 233:25 234:25 235:25 236:25 237:25 238:25 239:25 240:25 241:25 242:25 243:25 244:25 245:25 246:25 247:25 248:25 249:25 250:25 251:137 252:187 253:25 254:25 255:25 256:25 257:25 258:25 259:25 260:25 261:25 262:25 263:25 264:25 265:25 266:25 267:25 268:25 269:25 270:25 271:50 272:25 273:25 274:25 275:25 276:25 277:25 278:25 279:25 280:25 281:25 282:25 283:25 284:25 285:25 286:25 287:25 288:25 289:25 290:25 291:25 292:25 293:25 294:25 295:25 296:25 297:25 298:25 299:25 300:25 301:25 302:25 303:25 304:25 305:25 306:25 307:25 308:25 309:25 310:25 311:25 312:25 313:25 314:25 315:25 316:25 317:25 318:25 319:25 320:25 321:25 322:25 323:25 324:25 325:25 326:25 327:25 328:25 329:25 330:25 331:25 332:25 333:25 334:25 335:25 336:25 337:25 338:25 339:25 340:25 341:25 342:25 343:25 344:37 345:25 346:25 347:25 348:25 349:25 350:25 351:25 352:25 353:25 354:25 355:25 356:25 357:25 358:25 359:25 360:25 361:25 362:25 363:25 364:25 365:25 366:25 367:25 368:25 369:25 370:25 371:25 372:25 373:25 374:25 375:25 376:25 377:25 378:25 379:25 380:25 381:25 382:25 383:25 384:100 385:125 386:25 387:25 388:25 389:25 390:25 391:25 392:25 393:25 394:25 395:25 396:25 397:25 398:25 399:25 400:25 
0.5474544248875203 1:25 2:25 3:25 4:25 5:25 6:25 7:25 8:25 9:25 10:25 11:25 12:25 13:25 14:25 15:25 16:25 17:25 18:25 19:25 20:25 21:25 22:25 23:25 24:25 25:25 26:25 27:25 28:25 29:25 30:25 31:25 32:25 33:25 34:25 35:25 36:25 37:25 38:25 39:25 40:25 41:25 42:25 43:25 44:25 45:25 46:25 47:25 48:25 49:25 50:25 51:25 52:25 53:25 54:25 55:25 56:25 57:25 58:25 59:25 60:25 61:25 62:25 63:25 64:25 65:25 66:25 67:25 68:25 69:25 70:25 71:25 72:25 73:25 74:25 75:25 76:25 77:25 78:25 79:25 80:25 81:25 82:25 83:25 84:25 85:25 86:25 87:25 88:25 89:25 90:25 91:25 92:25 93:25 94:25 95:25 96:25 97:25 98:25 99:25 100:25 101:25 102:25 103:25 104:25 105:25 106:25 107:25 108:25 109:25 110:25 111:25 112:25 113:25 114:25 115:25 116:25 117:25 118:25 119:25 120:25 121:25 122:25 123:25 124:25 125:25 126:25 127:25 128:25 129:25 130:25 131:25 132:50 133:62 134:25 135:25 136:25 137:25 138:25 139:25 140:25 141:25 142:25 143:25 144:25 145:25 146:25 147:25 148:25 149:25 150:25 151:25 152:25 153:25 154:25 155:37 156:25 157:25 158:25 159:25 160:25 161:25 162:25 163:25 164:25 165:25 166:25 167:25 168:25 169:25 170:25 171:25 172:162 173:137 174:25 175:25 176:25 177:25 178:25 179:25 180:25 181:25 182:25 183:25 184:25 185:25 186:25 187:25 188:25 189:25 190:25 191:25 192:174 193:112 194:25 195:25 196:37 197:25 198:25 199:25 200:25 201:25 202:25 203:25 204:25 205:25 206:25 207:25 208:25 209:37 210:25 211:174 212:212 213:25 214:25 215:25 216:25 217:25 218:25 219:25 220:25 221:25 222:25 223:25 224:25 225:25 226:25 227:25 228:25 229:25 230:25 231:199 232:162 233:25 234:25 235:25 236:25 237:25 238:25 239:25 240:25 241:25 242:25 243:25 244:25 245:25 246:25 247:25 248:25 249:25 250:25 251:25 252:25 253:25 254:25 255:25 256:25 257:25 258:25 259:25 260:25 261:25 262:25 263:25 264:25 265:25 266:25 267:25 268:25 269:25 270:25 271:37 272:25 273:37 274:25 275:25 276:25 277:25 278:25 279:25 280:25 281:25 282:25 283:25 284:25 285:25 286:25 287:25 288:25 289:25 290:25 291:25 292:37 293:25 294:25 295:25 296:25 297:37 298:37 299:25 300:25 301:25 302:25 303:25 304:25 305:25 306:25 307:25 308:25 309:25 310:25 311:25 312:25 313:25 314:25 315:25 316:25 317:25 318:25 319:25 320:37 321:25 322:25 323:25 324:25 325:25 326:25 327:25 328:25 329:25 330:25 331:25 332:25 333:25 334:25 335:25 336:25 337:25 338:137 339:37 340:25 341:25 342:25 343:25 344:25 345:25 346:25 347:25 348:25 349:25 350:25 351:25 352:25 353:25 354:25 355:25 356:37 357:112 358:255 359:25 360:25 361:25 362:25 363:25 364:25 365:25 366:25 367:25 368:25 369:25 370:25 371:25 372:25 373:25 374:25 375:25 376:25 377:62 378:112 379:25 380:25 381:25 382:25 383:25 384:25 385:25 386:25 387:25 388:25 389:25 390:25 391:25 392:25 393:25 394:25 395:25 396:37 397:62 398:37 399:37 400:25 
0.7209834276242868 1:25 2:25 3:25 4:25 5:25 6:25 7:25 8:25 9:25 10:25 11:25 12:25 13:25 14:25 15:25 16:25 17:25 18:25 19:25 20:25 21:25 22:25 23:25 24:25 25:25 26:100 27:112 28:25 29:25 30:25 31:25 32:25 33:25 34:25 35:25 36:25 37:25 38:25 39:25 40:25 41:25 42:25 43:25 44:25 45:25 46:125 47:162 48:25 49:25 50:25 51:25 52:25 53:25 54:25 55:25 56:25 57:25 58:25 59:25 60:25 61:25 62:25 63:25 64:25 65:149 66:187 67:25 68:25 69:25 70:25 71:25 72:25 73:25 74:25 75:25 76:25 77:25 78:25 79:25 80:25 81:25 82:25 83:25 84:25 85:187 86:199 87:25 88:25 89:25 90:25 91:25 92:25 93:25 94:25 95:25 96:25 97:25 98:25 99:25 100:25 101:25 102:25 103:25 104:37 105:37 106:25 107:25 108:25 109:25 110:25 111:25 112:25 113:25 114:25 115:25 116:25 117:25 118:25 119:25 120:25 121:25 122:25 123:25 124:25 125:37 126:25 127:25 128:25 129:25 130:25 131:25 132:25 133:25 134:25 135:25 136:25 137:25 138:25 139:25 140:25 141:25 142:25 143:25 144:25 145:25 146:25 147:25 148:25 149:25 150:25 151:37 152:25 153:25 154:25 155:25 156:25 157:25 158:25 159:25 160:25 161:25 162:25 163:25 164:25 165:25 166:25 167:25 168:25 169:25 170:25 171:62 172:25 173:25 174:25 175:25 176:25 177:25 178:25 179:25 180:25 181:25 182:25 183:25 184:25 185:25 186:25 187:25 188:25 189:25 190:25 191:25 192:25 193:25 194:25 195:25 196:25 197:25 198:25 199:25 200:25 201:25 202:25 203:25 204:25 205:25 206:25 207:25 208:25 209:25 210:174 211:87 212:25 213:25 214:25 215:25 216:25 217:25 218:25 219:25 220:25 221:25 222:25 223:25 224:25 225:25 226:25 227:25 228:25 229:62 230:100 231:62 232:25 233:25 234:25 235:25 236:25 237:25 238:25 239:25 240:25 241:25 242:25 243:25 244:25 245:25 246:25 247:25 248:25 249:149 250:62 251:25 252:25 253:25 254:25 255:25 256:25 257:25 258:25 259:25 260:25 261:25 262:25 263:25 264:25 265:25 266:25 267:25 268:25 269:25 270:25 271:25 272:25 273:25 274:25 275:25 276:25 277:25 278:25 279:25 280:25 281:25 282:25 283:25 284:25 285:25 286:25 287:25 288:25 289:25 290:25 291:25 292:25 293:25 294:25 295:25 296:25 297:25 298:25 299:25 300:25 301:25 302:25 303:25 304:25 305:25 306:25 307:25 308:25 309:25 310:25 311:25 312:25 313:25 314:25 315:25 316:25 317:25 318:25 319:25 320:25 321:25 322:25 323:25 324:25 325:25 326:25 327:25 328:25 329:25 330:25 331:25 332:25 333:25 334:25 335:25 336:25 337:25 338:25 339:25 340:25 341:25 342:25 343:25 344:25 345:25 346:25 347:25 348:25 349:25 350:25 351:25 352:25 353:25 354:25 355:25 356:25 357:25 358:25 359:25 360:25 361:25 362:25 363:25 364:25 365:25 366:25 367:25 368:25 369:25 370:25 371:25 372:25 373:25 374:25 375:25 376:25 377:25 378:25 379:25 380:25 381:25 382:25 383:25 384:25 385:25 386:25 387:25 388:25 389:25 390:25 391:25 392:25 393:25 394:25 395:25 396:25 397:25 398:25 399:25 400:25 
1 1:25 2:25 3:25 4:25 5:25 6:25 7:25 8:25 9:25 10:25 11:25 12:25 13:25 14:25 15:25 16:25 17:25 18:25 19:25 20:25 21:25 22:25 23:25 24:25 25:25 26:25 27:25 28:25 29:25 30:25 31:25 32:25 33:25 34:25 35:25 36:25 37:25 38:25 39:25 40:25 41:25 42:37 43:25 44:25 45:25 46:25 47:25 48:25 49:25 50:25 51:25 52:37 53:25 54:25 55:25 56:25 57:25 58:25 59:25 60:25 61:25 62:25 63:25 64:25 65:25 66:25 67:25 68:25 69:25 70:25 71:25 72:25 73:62 74:37 75:25 76:25 77:25 78:25 79:25 80:25 81:25 82:25 83:25 84:25 85:25 86:25 87:25 88:25 89:25 90:25 91:25 92:50 93:25 94:25 95:37 96:25 97:25 98:25 99:25 100:25 101:37 102:25 103:25 104:25 105:25 106:25 107:25 108:25 109:25 110:25 111:50 112:199 113:62 114:25 115:25 116:25 117:25 118:25 119:25 120:25 121:25 122:25 123:25 124:25 125:25 126:25 127:25 128:25 129:25 130:124 131:212 132:149 133:62 134:25 135:25 136:25 137:25 138:25 139:25 140:25 141:25 142:25 143:25 144:25 145:25 146:25 147:25 148:25 149:50 150:187 151:174 152:25 153:62 154:25 155:25 156:25 157:25 158:25 159:25 160:25 161:25 162:25 163:25 164:25 165:25 166:25 167:25 168:25 169:50 170:25 171:87 172:112 173:25 174:25 175:25 176:25 177:25 178:25 179:25 180:25 181:25 182:25 183:25 184:25 185:25 186:25 187:25 188:25 189:25 190:112 191:174 192:50 193:25 194:25 195:25 196:25 197:25 198:25 199:25 200:25 201:25 202:25 203:25 204:25 205:25 206:25 207:25 208:25 209:25 210:37 211:50 212:25 213:25 214:25 215:25 216:25 217:25 218:25 219:25 220:25 221:25 222:25 223:25 224:25 225:25 226:25 227:25 228:25 229:25 230:25 231:25 232:25 233:25 234:25 235:25 236:25 237:25 238:25 239:25 240:25 241:25 242:25 243:25 244:25 245:25 246:25 247:25 248:25 249:25 250:25 251:25 252:25 253:25 254:25 255:25 256:25 257:25 258:25 259:25 260:25 261:25 262:25 263:25 264:25 265:25 266:25 267:25 268:25 269:25 270:25 271:25 272:25 273:25 274:25 275:25 276:25 277:25 278:25 279:25 280:25 281:25 282:25 283:25 284:25 285:25 286:25 287:25 288:25 289:25 290:25 291:25 292:25 293:25 294:25 295:25 296:25 297:25 298:25 299:25 300:25 301:25 302:25 303:25 304:25 305:25 306:25 307:25 308:25 309:25 310:25 311:25 312:25 313:25 314:25 315:25 316:25 317:25 318:25 319:25 320:25 321:25 322:25 323:25 324:25 325:25 326:25 327:25 328:25 329:25 330:25 331:25 332:25 333:25 334:25 335:25 336:25 337:25 338:25 339:25 340:25 341:25 342:25 343:25 344:25 345:25 346:25 347:25 348:25 349:25 350:25 351:25 352:25 353:25 354:25 355:25 356:25 357:25 358:25 359:25 360:25 361:25 362:25 363:25 364:25 365:25 366:25 367:25 368:25 369:25 370:25 371:25 372:25 373:25 374:25 375:25 376:25 377:25 378:25 379:25 380:25 381:25 382:25 383:25 384:25 385:25 386:25 387:25 388:25 389:25 390:25 391:25 392:25 393:25 394:25 395:25 396:25 397:25 398:25 399:25 400:25 
1 1:25 2:25 3:25 4:25 5:25 6:25 7:25 8:25 9:25 10:25 11:25 12:25 13:25 14:25 15:25 16:25 17:25 18:25 19:25 20:25 21:25 22:25 23:25 24:25 25:25 26:25 27:25 28:25 29:25 30:25 31:25 32:25 33:25 34:25 35:25 36:25 37:25 38:25 39:25 40:25 41:25 42:25 43:25 44:25 45:25 46:25 47:25 48:25 49:25 50:25 51:25 52:25 53:25 54:25 55:25 56:25 57:25 58:25 59:25 60:25 61:25 62:25 63:25 64:25 65:25 66:25 67:25 68:25 69:25 70:25 71:25 72:25 73:25 74:25 75:25 76:25 77:25 78:25 79:25 80:25 81:25 82:25 83:25 84:25 85:25 86:25 87:25 88:25 89:25 90:25 91:25 92:25 93:25 94:25 95:25 96:25 97:25 98:25 99:25 100:25 101:25 102:25 103:25 104:25 105:25 106:25 107:25 108:25 109:25 110:25 111:25 112:25 113:25 114:25 115:25 116:25 117:25 118:25 119:25 120:25 121:25 122:25 123:25 124:25 125:25 126:25 127:25 128:25 129:25 130:25 131:25 132:25 133:25 134:25 135:25 136:25 137:25 138:25 139:25 140:25 141:25 142:25 143:25 144:25 145:25 146:25 147:25 148:25 149:25 150:25 151:25 152:25 153:25 154:25 155:25 156:25 157:25 158:25 159:25 160:25 161:25 162:25 163:25 164:25 165:25 166:25 167:25 168:25 169:25 170:25 171:25 172:25 173:25 174:25 175:25 176:25 177:25 178:25 179:25 180:25 181:25 182:25 183:25 184:25 185:25 186:25 187:25 188:25 189:25 190:25 191:25 192:25 193:25 194:25 195:25 196:25 197:25 198:25 199:25 200:25 201:25 202:25 203:25 204:25 205:25 206:25 207:25 208:25 209:25 210:25 211:37 212:25 213:25 214:25 215:25 216:25 217:25 218:25 219:25 220:25 221:25 222:25 223:25 224:25 225:25 226:25 227:25 228:25 229:87 230:125 231:25 232:25 233:25 234:25 235:25 236:25 237:25 238:25 239:25 240:25 241:25 242:25 243:25 244:25 245:25 246:25 247:25 248:62 249:199 250:25 251:25 252:25 253:25 254:25 255:25 256:25 257:25 258:25 259:25 260:25 261:25 262:25 263:25 264:25 265:25 266:25 267:25 268:25 269:25 270:25 271:25 272:25 273:25 274:25 275:25 276:25 277:25 278:25 279:25 280:25 281:25 282:25 283:25 284:25 285:25 286:25 287:25 288:25 289:25 290:25 291:25 292:25 293:25 294:25 295:25 296:25 297:25 298:25 299:25 300:25 301:25 302:25 303:25 304:25 305:25 306:25 307:25 308:25 309:25 310:25 311:25 312:25 313:25 314:25 315:25 316:25 317:25 318:25 319:25 320:25 321:25 322:25 323:25 324:25 325:25 326:25 327:25 328:25 329:25 330:25 331:25 332:25 333:25 334:25 335:25 336:25 337:25 338:25 339:25 340:25 341:25 342:25 343:25 344:25 345:25 346:25 347:25 348:25 349:25 350:25 351:25 352:25 353:25 354:25 355:25 356:25 357:25 358:25 359:25 360:25 361:25 362:25 363:25 364:25 365:25 366:25 367:25 368:25 369:25 370:25 371:25 372:25 373:25 374:25 375:25 376:25 377:25 378:25 379:25 380:25 381:25 382:25 383:25 384:25 385:25 386:25 387:25 388:25 389:25 390:25 391:25 392:25 393:25 394:25 395:25 396:25 397:25 398:25 399:25 400:25 
1 1:25 2:25 3:25 4:25 5:25 6:25 7:25 8:25 9:25 10:25 11:25 12:25 13:25 14:25 15:25 16:25 17:25 18:25 19:25 20:25 21:25 22:25 23:25 24:25 25:25 26:25 27:25 28:25 29:25 30:25 31:25 32:25 33:25 34:25 35:25 36:25 37:25 38:25 39:25 40:25 41:25 42:25 43:25 44:25 45:25 46:25 47:25 48:25 49:25 50:25 51:25 52:25 53:25 54:25 55:37 56:37 57:25 58:25 59:25 60:25 61:25 62:25 63:25 64:25 65:25 66:25 67:25 68:25 69:25 70:25 71:25 72:25 73:25 74:50 75:87 76:37 77:25 78:25 79:25 80:25 81:25 82:25 83:25 84:25 85:25 86:25 87:25 88:25 89:25 90:25 91:25 92:25 93:62 94:112 95:87 96:25 97:25 98:25 99:25 100:25 101:25 102:25 103:25 104:25 105:25 106:25 107:25 108:25 109:25 110:25 111:25 112:25 113:255 114:87 115:25 116:25 117:25 118:25 119:25 120:25 121:25 122:25 123:25 124:25 125:25 126:25 127:25 128:25 129:25 130:25 131:25 132:50 133:25 134:25 135:25 136:25 137:25 138:25 139:25 140:25 141:25 142:25 143:25 144:25 145:25 146:25 147:25 148:25 149:25 150:25 151:25 152:25 153:25 154:25 155:25 156:25 157:25 158:25 159:25 160:25 161:25 162:25 163:25 164:25 165:25 166:25 167:25 168:25 169:25 170:25 171:25 172:37 173:25 174:25 175:25 176:25 177:25 178:25 179:25 180:25 181:25 182:25 183:25 184:25 185:25 186:25 187:25 188:25 189:25 190:25 191:37 192:37 193:25 194:37 195:25 196:25 197:25 198:25 199:25 200:25 201:25 202:25 203:25 204:25 205:25 206:25 207:25 208:25 209:25 210:25 211:187 212:25 213:25 214:25 215:37 216:50 217:25 218:25 219:25 220:25 221:25 222:25 223:25 224:25 225:25 226:25 227:25 228:25 229:25 230:25 231:25 232:25 233:25 234:199 235:149 236:25 237:25 238:25 239:25 240:25 241:25 242:25 243:25 244:25 245:25 246:25 247:25 248:25 249:25 250:25 251:25 252:25 253:25 254:187 255:137 256:25 257:25 258:25 259:25 260:25 261:25 262:25 263:25 264:25 265:25 266:25 267:25 268:25 269:25 270:25 271:37 272:137 273:137 274:25 275:25 276:25 277:25 278:25 279:25 280:25 281:25 282:25 283:25 284:25 285:25 286:25 287:25 288:25 289:25 290:25 291:37 292:174 293:174 294:25 295:25 296:25 297:25 298:25 299:25 300:25 301:25 302:25 303:25 304:25 305:25 306:25 307:25 308:25 309:25 310:37 311:25 312:50 313:25 314:25 315:25 316:25 317:25 318:25 319:25 320:25 321:25 322:25 323:25 324:25 325:25 326:25 327:25 328:25 329:25 330:25 331:25 332:25 333:25 334:25 335:25 336:25 337:25 338:25 339:25 340:25 341:25 342:25 343:25 344:25 345:25 346:25 347:25 348:25 349:25 350:25 351:25 352:25 353:25 354:25 355:25 356:25 357:25 358:25 359:25 360:25 361:25 362:25 363:25 364:25 365:25 366:25 367:25 368:25 369:25 370:25 371:25 372:25 373:25 374:25 375:25 376:25 377:25 378:25 379:25 380:25 381:25 382:25 383:25 384:25 385:25 386:25 387:25 388:25 389:25 390:25 391:25 392:25 393:25 394:25 395:25 396:25 397:25 398:25 399:25 400:25 
1 1:25 2:25 3:25 4:25 5:25 6:25 7:25 8:25 9:25 10:25 11:25 12:25 13:25 14:25 15:25 16:25 17:25 18:25 19:25 20:25 21:25 22:25 23:25 24:25 25:25 26:25 27:25 28:25 29:25 30:25 31:25 32:25 33:25 34:25 35:25 36:25 37:25 38:25 39:25 40:25 41:25 42:25 43:25 44:25 45:25 46:25 47:25 48:25 49:25 50:25 51:25 52:25 53:25 54:25 55:25 56:25 57:25 58:25 59:25 60:25 61:25 62:25 63:25 64:25 65:25 66:25 67:25 68:25 69:25 70:25 71:25 72:25 73:25 74:25 75:25 76:25 77:25 78:25 79:25 80:25 81:25 82:25 83:25 84:25 85:25 86:25 87:25 88:25 89:25 90:25 91:25 92:25 93:25 94:25 95:25 96:25 97:25 98:25 99:25 100:25 101:25 102:25 103:25 104:25 105:25 106:25 107:25 108:25 109:25 110:25 111:25 112:25 113:25 114:25 115:25 116:25 117:25 118:25 119:25 120:25 121:25 122:25 123:25 124:25 125:25 126:25 127:25 128:25 129:25 130:25 131:25 132:25 133:25 134:25 135:25 136:25 137:25 138:25 139:25 140:25 141:25 142:25 143:25 144:25 145:25 146:25 147:25 148:25 149:25 150:25 151:25 152:25 153:25 154:25 155:25 156:25 157:25 158:25 159:25 160:25 161:25 162:25 163:25 164:25 165:25 166:25 167:25 168:25 169:25 170:25 171:25 172:25 173:25 174:25 175:25 176:25 177:25 178:25 179:25 180:25 181:25 182:25 183:25 184:25 185:25 186:25 187:25 188:25 189:25 190:25 191:25 192:37 193:25 194:25 195:25 196:25 197:25 198:25 199:25 200:25 201:25 202:25 203:25 204:25 205:25 206:25 207:25 208:25 209:25 210:25 211:50 212:50 213:25 214:25 215:25 216:25 217:25 218:25 219:25 220:25 221:25 222:25 223:25 224:25 225:25 226:25 227:25 228:25 229:25 230:25 231:125 232:25 233:25 234:25 235:25 236:25 237:25 238:25 239:25 240:25 241:25 242:25 243:25 244:25 245:25 246:25 247:25 248:25 249:25 250:37 251:137 252:25 253:25 254:25 255:25 256:25 257:25 258:25 259:25 260:25 261:25 262:25 263:25 264:25 265:25 266:25 267:25 268:25 269:25 270:25 271:25 272:25 273:25 274:25 275:25 276:25 277:25 278:25 279:25 280:25 281:25 282:25 283:25 284:25 285:25 286:25 287:25 288:25 289:25 290:25 291:25 292:25 293:25 294:25 295:25 296:25 297:25 298:25 299:25 300:25 301:25 302:25 303:25 304:25 305:25 306:25 307:25 308:25 309:25 310:25 311:25 312:25 313:25 314:25 315:25 316:25 317:25 318:25 319:25 320:25 321:25 322:25 323:25 324:25 325:25 326:25 327:25 328:25 329:25 330:25 331:25 332:25 333:25 334:25 335:25 336:25 337:25 338:25 339:25 340:25 341:25 342:25 343:25 344:25 345:25 346:25 347:25 348:25 349:25 350:25 351:25 352:25 353:25 354:25 355:25 356:25 357:25 358:25 359:25 360:25 361:25 362:25 363:25 364:25 365:25 366:25 367:25 368:25 369:25 370:25 371:25 372:25 373:25 374:25 375:25 376:25 377:25 378:25 379:25 380:25 381:25 382:25 383:25 384:25 385:25 386:25 387:25 388:25 389:25 390:25 391:25 392:25 393:25 394:25 395:25 396:25 397:25 398:25 399:25 400:25 
1 1:25 2:25 3:25 4:25 5:25 6:25 7:25 8:25 9:25 10:25 11:25 12:25 13:25 14:25 15:25 16:25 17:25 18:25 19:25 20:25 21:25 22:25 23:25 24:25 25:25 26:25 27:25 28:25 29:25 30:25 31:25 32:25 33:25 34:25 35:25 36:25 37:25 38:25 39:25 40:25 41:25 42:25 43:25 44:25 45:25 46:25 47:25 48:25 49:25 50:25 51:25 52:25 53:25 54:25 55:25 56:25 57:25 58:25 59:25 60:25 61:25 62:25 63:25 64:25 65:25 66:25 67:25 68:25 69:25 70:25 71:25 72:25 73:25 74:25 75:25 76:25 77:25 78:25 79:25 80:25 81:25 82:25 83:25 84:25 85:25 86:25 87:25 88:25 89:25 90:25 91:25 92:25 93:25 94:25 95:25 96:25 97:25 98:25 99:25 100:25 101:25 102:25 103:25 104:25 105:25 106:25 107:25 108:25 109:25 110:25 111:25 112:25 113:25 114:25 115:25 116:25 117:25 118:25 119:25 120:25 121:25 122:25 123:25 124:25 125:25 126:25 127:25 128:25 129:25 130:37 131:25 132:25 133:25 134:25 135:25 136:25 137:25 138:25 139:25 140:25 141:25 142:25 143:25 144:25 145:25 146:25 147:25 148:25 149:25 150:25 151:50 152:25 153:25 154:25 155:25 156:25 157:25 158:25 159:25 160:25 161:25 162:25 163:25 164:25 165:25 166:25 167:25 168:25 169:75 170:87 171:37 172:25 173:25 174:25 175:25 176:25 177:25 178:25 179:25 180:25 181:25 182:25 183:25 184:25 185:25 186:25 187:25 188:149 189:50 190:112 191:37 192:25 193:25 194:25 195:25 196:25 197:25 198:25 199:25 200:25 201:25 202:25 203:25 204:25 205:25 206:25 207:25 208:187 209:100 210:25 211:25 212:25 213:25 214:25 215:25 216:25 217:25 218:25 219:25 220:25 221:25 222:25 223:25 224:25 225:25 226:25 227:25 228:25 229:25 230:25 231:25 232:25 233:25 234:25 235:25 236:25 237:25 238:25 239:25 240:25 241:25 242:25 243:25 244:25 245:25 246:25 247:25 248:25 249:25 250:25 251:25 252:25 253:25 254:25 255:25 256:25 257:25 258:25 259:25 260:25 261:25 262:25 263:25 264:25 265:25 266:25 267:25 268:25 269:25 270:25 271:25 272:25 273:25 274:25 275:25 276:25 277:25 278:25 279:25 280:25 281:25 282:25 283:25 284:25 285:25 286:25 287:25 288:25 289:25 290:25 291:25 292:25 293:25 294:25 295:25 296:25 297:25 298:25 299:37 300:50 301:25 302:25 303:25 304:25 305:25 306:25 307:25 308:25 309:25 310:25 311:25 312:25 313:25 314:25 315:25 316:25 317:25 318:25 319:25 320:25 321:25 322:25 323:25 324:25 325:25 326:25 327:25 328:25 329:25 330:25 331:25 332:25 333:25 334:25 335:25 336:25 337:25 338:25 339:162 340:125 341:25 342:25 343:25 344:25 345:25 346:25 347:25 348:25 349:25 350:25 351:25 352:25 353:25 354:25 355:25 356:25 357:25 358:255 359:25 360:62 361:25 362:25 363:25 364:25 365:25 366:25 367:25 368:25 369:25 370:25 371:25 372:25 373:25 374:25 375:25 376:25 377:25 378:125 379:25 380:25 381:25 382:25 383:25 384:25 385:25 386:25 387:25 388:25 389:25 390:25 391:25 392:25 393:25 394:25 395:25 396:25 397:25 398:25 399:25 400:25 
0.1384870124767447 1:25 2:25 3:25 4:25 5:25 6:25 7:25 8:25 9:25 10:25 11:25 12:25 13:25 14:25 15:25 16:25 17:25 18:25 19:25 20:25 21:25 22:25 23:25 24:25 25:25 26:25 27:25 28:25 29:25 30:25 31:25 32:25 33:25 34:25 35:25 36:25 37:25 38:25 39:25 40:25 41:25 42:25 43:25 44:25 45:25 46:25 47:25 48:25 49:25 50:25 51:25 52:25 53:25 54:25 55:25 56:25 57:25 58:25 59:25 60:25 61:25 62:25 63:25 64:25 65:25 66:25 67:25 68:25 69:25 70:25 71:25 72:25 73:25 74:25 75:25 76:25 77:25 78:25 79:25 80:25 81:25 82:25 83:25 84:25 85:25 86:25 87:25 88:25 89:25 90:25 91:25 92:25 93:25 94:25 95:25 96:25 97:25 98:25 99:25 100:25 101:25 102:25 103:25 104:25 105:25 106:25 107:25 108:25 109:25 110:25 111:25 112:25 113:25 114:25 115:25 116:25 117:25 118:25 119:25 120:25 121:25 122:25 123:25 124:25 125:25 126:25 127:25 128:25 129:25 130:25 131:25 132:25 133:25 134:25 135:25 136:25 137:25 138:25 139:25 140:25 141:25 142:25 143:25 144:25 145:25 146:25 147:25 148:25 149:25 150:25 151:25 152:25 153:25 154:25 155:25 156:25 157:25 158:25 159:25 160:25 161:25 162:25 163:25 164:25 165:25 166:25 167:25 168:25 169:25 170:25 171:25 172:25 173:25 174:25 175:37 176:25 177:25 178:25 179:25 180:25 181:25 182:25 183:25 184:25 185:25 186:25 187:25 188:25 189:25 190:25 191:25 192:25 193:149 194:87 195:25 196:25 197:25 198:25 199:25 200:25 201:25 202:25 203:25 204:25 205:25 206:25 207:25 208:25 209:25 210:25 211:25 212:125 213:199 214:100 215:25 216:25 217:25 218:25 219:25 220:25 221:25 222:25 223:25 224:25 225:25 226:25 227:25 228:25 229:25 230:25 231:25 232:137 233:112 234:25 235:25 236:25 237:25 238:25 239:25 240:25 241:25 242:25 243:25 244:25 245:25 246:25 247:25 248:25 249:25 250:25 251:25 252:37 253:37 254:25 255:25 256:25 257:25 258:25 259:25 260:25 261:25 262:25 263:25 264:25 265:25 266:25 267:25 268:25 269:25 270:25 271:25 272:25 273:37 274:37 275:25 276:25 277:25 278:25 279:25 280:25 281:25 282:25 283:25 284:25 285:25 286:25 287:25 288:25 289:25 290:25 291:25 292:25 293:25 294:25 295:25 296:25 297:25 298:25 299:25 300:25 301:25 302:25 303:25 304:25 305:25 306:25 307:25 308:25 309:25 310:25 311:25 312:25 313:25 314:25 315:25 316:25 317:25 318:25 319:25 320:25 321:25 322:25 323:25 324:25 325:25 326:25 327:25 328:25 329:25 330:25 331:25 332:25 333:25 334:25 335:25 336:25 337:25 338:37 339:37 340:25 341:25 342:25 343:25 344:25 345:25 346:25 347:25 348:25 349:25 350:25 351:25 352:25 353:25 354:25 355:25 356:25 357:149 358:37 359:37 360:25 361:25 362:25 363:25 364:25 365:25 366:25 367:25 368:25 369:25 370:25 371:25 372:25 373:25 374:25 375:25 376:162 377:125 378:50 379:25 380:25 381:25 382:25 383:25 384:25 385:25 386:25 387:25 388:25 389:25 390:25 391:25 392:25 393:25 394:25 395:25 396:50 397:50 398:25 399:25 400:25 
1 1:25 2:25 3:25 4:25 5:25 6:25 7:25 8:25 9:25 10:37 11:25 12:25 13:25 14:25 15:25 16:25 17:25 18:25 19:25 20:25 21:25 22:25 23:25 24:25 25:25 26:25 27:162 28:137 29:25 30:25 31:25 32:25 33:25 34:25 35:25 36:25 37:25 38:25 39:25 40:25 41:25 42:25 43:25 44:25 45:25 46:25 47:174 48:112 49:25 50:25 51:37 52:25 53:25 54:25 55:25 56:25 57:25 58:25 59:25 60:25 61:25 62:25 63:25 64:37 65:25 66:174 67:212 68:25 69:25 70:25 71:25 72:25 73:25 74:25 75:25 76:25 77:25 78:25 79:25 80:25 81:25 82:25 83:25 84:25 85:25 86:199 87:162 88:25 89:25 90:25 91:25 92:25 93:25 94:25 95:25 96:25 97:25 98:25 99:25 100:25 101:25 102:25 103:25 104:25 105:25 106:25 107:25 108:25 109:25 110:25 111:25 112:25 113:25 114:25 115:25 116:25 117:25 118:25 119:25 120:25 121:25 122:25 123:25 124:25 125:25 126:37 127:25 128:37 129:25 130:25 131:25 132:25 133:25 134:25 135:25 136:25 137:25 138:25 139:25 140:25 141:25 142:25 143:25 144:25 145:25 146:25 147:37 148:25 149:25 150:25 151:25 152:37 153:37 154:25 155:25 156:25 157:25 158:25 159:25 160:25 161:25 162:25 163:25 164:25 165:25 166:25 167:25 168:25 169:25 170:25 171:25 172:25 173:25 174:25 175:37 176:25 177:25 178:25 179:25 180:25 181:25 182:25 183:25 184:25 185:25 186:25 187:25 188:25 189:25 190:25 191:25 192:25 193:137 194:37 195:25 196:25 197:25 198:25 199:25 200:25 201:25 202:25 203:25 204:25 205:25 206:25 207:25 208:25 209:25 210:25 211:37 212:112 213:255 214:25 215:25 216:25 217:25 218:25 219:25 220:25 221:25 222:25 223:25 224:25 225:25 226:25 227:25 228:25 229:25 230:25 231:25 232:62 233:112 234:25 235:25 236:25 237:25 238:25 239:25 240:25 241:25 242:25 243:25 244:25 245:25 246:25 247:25 248:25 249:25 250:25 251:37 252:62 253:37 254:37 255:25 256:25 257:25 258:25 259:25 260:25 261:25 262:25 263:25 264:25 265:25 266:25 267:25 268:25 269:25 270:25 271:25 272:25 273:25 274:25 275:25 276:25 277:25 278:25 279:25 280:25 281:25 282:25 283:25 284:25 285:25 286:25 287:25 288:25 289:25 290:25 291:25 292:25 293:25 294:25 295:25 296:25 297:25 298:25 299:25 300:25 301:25 302:25 303:25 304:25 305:25 306:25 307:25 308:25 309:25 310:25 311:25 312:25 313:25 314:25 315:25 316:25 317:25 318:25 319:25 320:25 321:25 322:25 323:25 324:25 325:25 326:25 327:25 328:25 329:25 330:25 331:25 332:25 333:25 334:25 335:25 336:25 337:25 338:25 339:25 340:25 341:25 342:25 343:25 344:25 345:25 346:25 347:25 348:25 349:25 350:25 351:25 352:25 353:25 354:25 355:25 356:25 357:25 358:25 359:25 360:25 361:25 362:25 363:25 364:25 365:25 366:25 367:25 368:25 369:25 370:25 371:25 372:25 373:25 374:25 375:25 376:25 377:25 378:25 379:25 380:25 381:25 382:25 383:25 384:25 385:25 386:25 387:25 388:25 389:25 390:25 391:25 392:25 393:25 394:25 395:25 396:25 397:25 398:25 399:25 400:25 
1 1:25 2:25 3:25 4:25 5:25 6:25 7:25 8:25 9:25 10:25 11:25 12:25 13:25 14:25 15:25 16:25 17:25 18:25 19:25 20:25 21:25 22:25 23:25 24:25 25:25 26:25 27:25 28:25 29:25 30:25 31:25 32:25 33:25 34:25 35:25 36:25 37:25 38:25 39:25 40:25 41:25 42:25 43:25 44:25 45:25 46:25 47:25 48:25 49:25 50:25 51:25 52:25 53:25 54:25 55:25 56:25 57:25 58:25 59:25 60:25 61:25 62:25 63:25 64:25 65:25 66:25 67:25 68:25 69:25 70:25 71:25 72:25 73:25 74:25 75:25 76:25 77:25 78:25 79:25 80:25 81:25 82:25 83:25 84:25 85:25 86:25 87:25 88:25 89:25 90:25 91:25 92:25 93:25 94:25 95:25 96:25 97:25 98:25 99:25 100:25 101:25 102:25 103:25 104:25 105:25 106:25 107:25 108:25 109:25 110:25 111:25 112:25 113:25 114:25 115:25 116:25 117:25 118:25 119:25 120:25 121:25 122:25 123:25 124:25 125:25 126:25 127:25 128:25 129:25 130:25 131:25 132:25 133:25 134:25 135:25 136:25 137:25 138:25 139:25 140:25 141:25 142:25 143:25 144:25 145:25 146:25 147:25 148:25 149:25 150:25 151:25 152:25 153:37 154:25 155:37 156:25 157:25 158:25 159:25 160:25 161:25 162:25 163:25 164:25 165:25 166:25 167:25 168:25 169:25 170:25 171:25 172:25 173:25 174:25 175:25 176:25 177:25 178:25 179:25 180:25 181:25 182:25 183:25 184:25 185:25 186:25 187:25 188:25 189:25 190:25 191:25 192:37 193:187 194:25 195:25 196:25 197:25 198:25 199:25 200:25 201:25 202:25 203:25 204:25 205:25 206:25 207:25 208:25 209:25 210:25 211:25 212:62 213:75 214:25 215:25 216:25 217:25 218:25 219:25 220:25 221:25 222:25 223:25 224:25 225:25 226:25 227:25 228:25 229:25 230:25 231:25 232:25 233:25 234:25 235:25 236:25 237:25 238:25 239:25 240:25 241:25 242:25 243:25 244:25 245:25 246:25 247:25 248:25 249:25 250:25 251:25 252:25 253:25 254:25 255:25 256:25 257:25 258:25 259:25 260:25 261:25 262:25 263:25 264:25 265:25 266:25 267:25 268:25 269:25 270:25 271:25 272:25 273:25 274:25 275:25 276:25 277:25 278:25 279:25 280:25 281:25 282:25 283:25 284:25 285:25 286:25 287:25 288:25 289:25 290:25 291:25 292:25 293:25 294:25 295:25 296:25 297:25 298:25 299:25 300:25 301:37 302:25 303:25 304:25 305:25 306:25 307:25 308:25 309:25 310:25 311:25 312:25 313:25 314:25 315:25 316:25 317:25 318:25 319:25 320:25 321:37 322:25 323:25 324:25 325:25 326:25 327:25 328:25 329:25 330:25 331:25 332:25 333:25 334:25 335:25 336:25 337:25 338:25 339:25 340:25 341:25 342:25 343:25 344:25 345:25 346:25 347:25 348:25 349:25 350:25 351:25 352:25 353:25 354:25 355:25 356:25 357:25 358:25 359:25 360:25 361:25 362:25 363:25 364:25 365:25 366:25 367:25 368:25 369:25 370:25 371:25 372:25 373:25 374:25 375:25 376:25 377:25 378:25 379:25 380:25 381:25 382:25 383:25 384:25 385:25 386:25 387:25 388:25 389:25 390:25 391:25 392:25 393:25 394:25 395:25 396:25 397:25 398:25 399:25 400:25 
0.4922903420904594 1:25 2:25 3:25 4:25 5:25 6:25 7:25 8:25 9:25 10:25 11:25 12:25 13:25 14:25 15:25 16:25 17:25 18:25 19:25 20:25 21:25 22:25 23:25 24:25 25:25 26:25 27:25 28:25 29:25 30:25 31:25 32:25 33:25 34:25 35:25 36:25 37:25 38:25 39:25 40:25 41:25 42:25 43:25 44:25 45:25 46:25 47:25 48:25 49:25 50:25 51:25 52:25 53:25 54:25 55:25 56:25 57:25 58:25 59:25 60:25 61:25 62:25 63:25 64:25 65:25 66:25 67:25 68:25 69:25 70:25 71:25 72:25 73:25 74:25 75:25 76:25 77:25 78:25 79:25 80:25 81:25 82:25 83:25 84:25 85:25 86:25 87:25 88:25 89:25 90:25 91:25 92:25 93:25 94:25 95:25 96:25 97:25 98:25 99:25 100:25 101:25 102:25 103:25 104:25 105:25 106:25 107:25 108:25 109:25 110:25 111:25 112:25 113:25 114:25 115:25 116:25 117:25 118:25 119:25 120:25 121:25 122:25 123:25 124:25 125:25 126:25 127:25 128:25 129:25 130:25 131:25 132:37 133:25 134:25 135:25 136:25 137:25 138:25 139:25 140:25 141:25 142:25 143:25 144:25 145:25 146:25 147:25 148:25 149:25 150:25 151:25 152:50 153:25 154:25 155:25 156:25 157:25 158:25 159:25 160:25 161:25 162:25 163:25 164:25 165:25 166:25 167:25 168:25 169:25 170:25 171:62 172:255 173:25 174:25 175:25 176:25 177:25 178:25 179:25 180:25 181:25 182:25 183:25 184:25 185:25 186:25 187:25 188:25 189:25 190:25 191:75 192:112 193:25 194:25 195:25 196:25 197:25 198:25 199:25 200:25 201:25 202:25 203:25 204:25 205:25 206:25 207:25 208:25 209:25 210:37 211:50 212:25 213:25 214:25 215:25 216:25 217:25 218:25 219:25 220:25 221:25 222:25 223:25 224:25 225:25 226:25 227:25 228:25 229:25 230:25 231:25 232:25 233:25 234:25 235:25 236:25 237:25 238:25 239:25 240:25 241:25 242:25 243:25 244:25 245:25 246:25 247:25 248:25 249:25 250:25 251:25 252:25 253:25 254:25 255:25 256:25 257:25 258:25 259:25 260:25 261:25 262:25 263:25 264:25 265:25 266:25 267:25 268:25 269:25 270:25 271:25 272:25 273:25 274:25 275:25 276:25 277:25 278:25 279:25 280:25 281:25 282:25 283:25 284:25 285:25 286:25 287:25 288:25 289:25 290:25 291:25 292:25 293:25 294:25 295:25 296:25 297:25 298:25 299:25 300:25 301:25 302:25 303:25 304:25 305:25 306:25 307:25 308:25 309:25 310:25 311:25 312:25 313:25 314:25 315:25 316:25 317:25 318:25 319:25 320:25 321:25 322:25 323:25 324:25 325:25 326:25 327:25 328:25 329:25 330:25 331:25 332:25 333:25 334:25 335:25 336:25 337:25 338:25 339:25 340:25 341:25 342:25 343:25 344:25 345:25 346:25 347:25 348:25 349:25 350:25 351:25 352:25 353:25 354:25 355:25 356:25 357:25 358:25 359:25 360:25 361:25 362:25 363:25 364:25 365:25 366:25 367:25 368:25 369:25 370:25 371:25 372:25 373:25 374:25 375:25 376:25 377:25 378:25 379:25 380:25 381:25 382:25 383:25 384:25 385:25 386:25 387:25 388:25 389:25 390:25 391:25 392:25 393:25 394:25 395:25 396:25 397:25 398:25 399:25 400:25 
0.8482272841223411 1:25 2:25 3:25 4:25 5:25 6:25 7:25 8:25 9:25 10:25 11:25 12:25 13:25 14:25 15:25 16:25 17:25 18:25 19:25 20:25 21:25 22:25 23:25 24:25 25:25 26:25 27:25 28:25 29:25 30:25 31:25 32:25 33:25 34:25 35:25 36:25 37:25 38:25 39:25 40:25 41:25 42:25 43:25 44:25 45:25 46:25 47:25 48:25 49:25 50:25 51:25 52:25 53:25 54:25 55:25 56:25 57:25 58:25 59:25 60:25 61:25 62:25 63:25 64:25 65:25 66:25 67:25 68:25 69:25 70:25 71:25 72:25 73:25 74:25 75:25 76:25 77:25 78:25 79:25 80:25 81:25 82:25 83:25 84:25 85:25 86:25 87:25 88:25 89:25 90:25 91:25 92:25 93:25 94:25 95:25 96:25 97:25 98:25 99:25 100:25 101:25 102:25 103:25 104:25 105:25 106:25 107:25 108:25 109:25 110:25 111:25 112:25 113:25 114:25 115:25 116:25 117:25 118:25 119:25 120:25 121:25 122:25 123:25 124:25 125:25 126:25 127:25 128:25 129:25 130:25 131:25 132:25 133:25 134:25 135:25 136:25 137:25 138:25 139:25 140:25 141:25 142:25 143:25 144:25 145:25 146:25 147:25 148:25 149:25 150:25 151:25 152:37 153:37 154:25 155:25 156:25 157:25 158:25 159:25 160:25 161:25 162:25 163:25 164:25 165:25 166:25 167:25 168:25 169:25 170:25 171:25 172:25 173:25 174:25 175:62 176:25 177:25 178:25 179:25 180:25 181:25 182:25 183:25 184:25 185:25 186:25 187:25 188:25 189:25 190:25 191:25 192:25 193:174 194:137 195:25 196:25 197:25 198:25 199:25 200:25 201:25 202:25 203:25 204:25 205:25 206:25 207:25 208:25 209:25 210:25 211:25 212:149 213:162 214:25 215:25 216:25 217:25 218:25 219:25 220:25 221:25 222:25 223:25 224:25 225:25 226:25 227:25 228:25 229:25 230:25 231:25 232:25 233:37 234:37 235:25 236:25 237:25 238:25 239:25 240:25 241:25 242:25 243:25 244:25 245:25 246:25 247:25 248:25 249:25 250:25 251:25 252:25 253:50 254:25 255:25 256:25 257:25 258:25 259:25 260:25 261:25 262:25 263:25 264:25 265:25 266:25 267:25 268:25 269:25 270:25 271:25 272:25 273:25 274:25 275:25 276:25 277:25 278:25 279:25 280:25 281:25 282:25 283:25 284:25 285:25 286:25 287:25 288:25 289:25 290:25 291:25 292:25 293:25 294:25 295:25 296:25 297:25 298:25 299:25 300:25 301:25 302:25 303:25 304:25 305:25 306:25 307:25 308:25 309:25 310:25 311:25 312:25 313:25 314:25 315:25 316:25 317:25 318:25 319:25 320:25 321:25 322:25 323:25 324:25 325:25 326:25 327:25 328:25 329:25 330:25 331:25 332:25 333:25 334:25 335:25 336:25 337:25 338:25 339:25 340:25 341:25 342:25 343:25 344:25 345:25 346:25 347:25 348:25 349:25 350:25 351:25 352:25 353:25 354:25 355:25 356:25 357:25 358:25 359:25 360:25 361:25 362:25 363:25 364:25 365:25 366:25 367:25 368:25 369:25 370:25 371:25 372:25 373:25 374:25 375:25 376:25 377:25 378:25 379:25 380:25 381:25 382:25 383:25 384:25 385:25 386:25 387:25 388:25 389:25 390:25 391:25 392:25 393:25 394:25 395:25 396:25 397:25 398:25 399:25 400:25 
1 1:25 2:25 3:25 4:25 5:25 6:25 7:25 8:25 9:25 10:25 11:25 12:25 13:25 14:25 15:25 16:25 17:25 18:25 19:25 20:25 21:25 22:25 23:25 24:25 25:25 26:25 27:25 28:25 29:25 30:25 31:25 32:25 33:25 34:25 35:25 36:25 37:25 38:25 39:25 40:25 41:25 42:25 43:25 44:25 45:25 46:25 47:25 48:25 49:25 50:25 51:25 52:25 53:25 54:25 55:25 56:25 57:25 58:25 59:25 60:25 61:25 62:25 63:25 64:25 65:25 66:25 67:25 68:25 69:25 70:25 71:25 72:25 73:25 74:25 75:25 76:25 77:25 78:25 79:25 80:25 81:25 82:25 83:25 84:25 85:25 86:25 87:25 88:25 89:25 90:25 91:25 92:25 93:25 94:25 95:25 96:25 97:25 98:25 99:25 100:25 101:25 102:25 103:25 104:25 105:25 106:25 107:25 108:25 109:25 110:25 111:25 112:25 113:25 114:25 115:25 116:25 117:25 118:25 119:25 120:25 121:25 122:25 123:25 124:25 125:25 126:25 127:25 128:25 129:25 130:25 131:25 132:25 133:25 134:25 135:25 136:25 137:25 138:25 139:25 140:25 141:25 142:25 143:25 144:25 145:25 146:25 147:25 148:25 149:25 150:25 151:25 152:25 153:25 154:25 155:25 156:25 157:25 158:25 159:25 160:25 161:25 162:25 163:25 164:25 165:25 166:25 167:25 168:25 169:25 170:25 171:25 172:25 173:25 174:25 175:25 176:25 177:25 178:25 179:25 180:25 181:25 182:25 183:25 184:25 185:25 186:25 187:25 188:25 189:25 190:25 191:25 192:25 193:50 194:25 195:25 196:25 197:25 198:25 199:25 200:25 201:25 202:25 203:25 204:25 205:25 206:25 207:25 208:25 209:25 210:25 211:25 212:50 213:37 214:25 215:25 216:25 217:25 218:25 219:25 220:25 221:25 222:25 223:25 224:25 225:25 226:25 227:25 228:25 229:25 230:25 231:25 232:100 233:25 234:25 235:25 236:25 237:25 238:25 239:25 240:25 241:25 242:25 243:25 244:25 245:25 246:25 247:25 248:25 249:25 250:25 251:25 252:25 253:25 254:25 255:25 256:25 257:25 258:25 259:25 260:25 261:25 262:25 263:25 264:25 265:25 266:25 267:25 268:25 269:25 270:25 271:25 272:25 273:25 274:25 275:25 276:25 277:25 278:25 279:25 280:25 281:25 282:25 283:25 284:25 285:25 286:25 287:25 288:25 289:25 290:25 291:25 292:25 293:25 294:25 295:25 296:25 297:25 298:25 299:25 300:25 301:25 302:25 303:25 304:25 305:25 306:25 307:25 308:25 309:25 310:25 311:25 312:25 313:25 314:25 315:25 316:25 317:25 318:25 319:25 320:25 321:25 322:25 323:25 324:25 325:25 326:25 327:25 328:25 329:25 330:25 331:25 332:25 333:25 334:25 335:25 336:25 337:25 338:25 339:25 340:25 341:25 342:25 343:25 344:25 345:25 346:25 347:25 348:25 349:25 350:25 351:25 352:25 353:25 354:25 355:25 356:25 357:25 358:25 359:25 360:25 361:25 362:25 363:25 364:25 365:25 366:25 367:25 368:25 369:25 370:25 371:25 372:25 373:25 374:25 375:25 376:25 377:25 378:25 379:25 380:25 381:25 382:25 383:25 384:25 385:25 386:25 387:25 388:25 389:25 390:25 391:25 392:25 393:25 394:25 395:25 396:25 397:25 398:25 399:25 400:25 
0.1113113553752127 1:25 2:25 3:25 4:25 5:25 6:25 7:25 8:25 9:25 10:25 11:25 12:25 13:25 14:25 15:25 16:25 17:25 18:25 19:25 20:25 21:25 22:25 23:25 24:25 25:25 26:25 27:25 28:25 29:25 30:25 31:25 32:25 33:25 34:25 35:25 36:25 37:25 38:25 39:25 40:25 41:25 42:25 43:25 44:25 45:25 46:25 47:25 48:25 49:25 50:25 51:25 52:25 53:25 54:25 55:25 56:25 57:25 58:25 59:25 60:25 61:25 62:25 63:25 64:25 65:25 66:25 67:25 68:25 69:25 70:25 71:25 72:25 73:25 74:25 75:25 76:25 77:25 78:25 79:25 80:25 81:25 82:25 83:25 84:25 85:25 86:25 87:25 88:25 89:25 90:25 91:25 92:25 93:25 94:25 95:25 96:25 97:25 98:25 99:25 100:25 101:25 102:25 103:25 104:25 105:25 106:25 107:25 108:25 109:25 110:25 111:25 112:37 113:37 114:25 115:25 116:25 117:25 118:25 119:25 120:25 121:25 122:25 123:25 124:25 125:25 126:25 127:25 128:25 129:25 130:25 131:25 132:25 133:25 134:37 135:25 136:25 137:25 138:25 139:25 140:25 141:25 142:25 143:25 144:25 145:25 146:25 147:25 148:25 149:37 150:25 151:25 152:62 153:125 154:25 155:37 156:25 157:25 158:25 159:25 160:25 161:25 162:25 163:25 164:25 165:25 166:25 167:25 168:25 169:25 170:25 171:125 172:199 173:149 174:25 175:37 176:25 177:25 178:25 179:25 180:25 181:25 182:25 183:25 184:25 185:25 186:25 187:25 188:25 189:25 190:37 191:112 192:100 193:25 194:25 195:25 196:25 197:25 198:25 199:25 200:25 201:25 202:25 203:25 204:25 205:25 206:25 207:25 208:25 209:25 210:25 211:25 212:25 213:25 214:37 215:25 216:25 217:25 218:25 219:25 220:25 221:25 222:25 223:25 224:25 225:25 226:25 227:25 228:25 229:25 230:37 231:25 232:50 233:37 234:25 235:25 236:25 237:25 238:25 239:25 240:25 241:25 242:25 243:25 244:25 245:25 246:25 247:25 248:25 249:25 250:25 251:37 252:25 253:25 254:25 255:25 256:25 257:25 258:25 259:25 260:25 261:25 262:25 263:25 264:25 265:25 266:25 267:25 268:25 269:25 270:25 271:25 272:25 273:25 274:25 275:25 276:25 277:25 278:25 279:25 280:25 281:25 282:25 283:25 284:25 285:25 286:25 287:25 288:25 289:25 290:25 291:25 292:25 293:25 294:25 295:25 296:25 297:25 298:25 299:25 300:25 301:25 302:25 303:25 304:25 305:25 306:25 307:25 308:25 309:25 310:25 311:25 312:25 313:25 314:25 315:25 316:25 317:25 318:25 319:25 320:25 321:25 322:25 323:25 324:25 325:25 326:25 327:25 328:25 329:25 330:25 331:25 332:25 333:25 334:25 335:25 336:25 337:25 338:25 339:25 340:25 341:25 342:25 343:25 344:25 345:25 346:25 347:25 348:25 349:25 350:25 351:25 352:25 353:25 354:25 355:25 356:25 357:25 358:25 359:25 360:25 361:25 362:25 363:25 364:25 365:25 366:25 367:25 368:25 369:25 370:25 371:25 372:25 373:25 374:25 375:25 376:25 377:25 378:25 379:25 380:25 381:25 382:25 383:25 384:25 385:25 386:25 387:25 388:25 389:25 390:25 391:25 392:25 393:25 394:25 395:25 396:25 397:25 398:25 399:25 400:25 
1 1:25 2:25 3:25 4:25 5:25 6:25 7:25 8:25 9:25 10:25 11:25 12:25 13:25 14:25 15:25 16:25 17:25 18:25 19:25 20:25 21:25 22:25 23:25 24:25 25:25 26:25 27:25 28:25 29:25 30:25 31:25 32:25 33:25 34:25 35:25 36:25 37:25 38:25 39:25 40:25 41:25 42:25 43:25 44:25 45:25 46:25 47:25 48:25 49:25 50:25 51:25 52:25 53:25 54:25 55:25 56:25 57:25 58:25 59:25 60:25 61:25 62:25 63:25 64:25 65:25 66:25 67:25 68:25 69:25 70:25 71:25 72:25 73:25 74:25 75:25 76:25 77:25 78:25 79:25 80:25 81:25 82:25 83:25 84:25 85:25 86:25 87:25 88:25 89:25 90:25 91:25 92:25 93:25 94:25 95:25 96:25 97:25 98:25 99:25 100:25 101:25 102:25 103:25 104:25 105:25 106:25 107:25 108:25 109:25 110:25 111:25 112:25 113:25 114:25 115:25 116:25 117:25 118:25 119:25 120:25 121:25 122:25 123:25 124:25 125:25 126:25 127:25 128:25 129:25 130:37 131:25 132:25 133:25 134:25 135:25 136:25 137:25 138:25 139:25 140:25 141:25 142:25 143:25 144:25 145:25 146:25 147:25 148:25 149:25 150:25 151:50 152:25 153:25 154:25 155:25 156:25 157:25 158:25 159:25 160:25 161:25 162:25 163:25 164:25 165:25 166:25 167:25 168:25 169:25 170:249 171:25 172:37 173:25 174:25 175:25 176:25 177:25 178:25 179:25 180:25 181:25 182:25 183:25 184:25 185:25 186:25 187:25 188:125 189:87 190:50 191:25 192:25 193:25 194:25 195:25 196:25 197:25 198:25 199:25 200:25 201:25 202:25 203:25 204:25 205:25 206:25 207:25 208:62 209:62 210:25 211:25 212:25 213:25 214:25 215:25 216:25 217:25 218:25 219:25 220:25 221:25 222:25 223:25 224:25 225:25 226:25 227:25 228:25 229:25 230:25 231:25 232:25 233:25 234:25 235:25 236:25 237:25 238:25 239:25 240:25 241:25 242:25 243:25 244:25 245:25 246:25 247:25 248:25 249:25 250:25 251:25 252:25 253:25 254:25 255:25 256:25 257:25 258:25 259:25 260:25 261:25 262:25 263:25 264:25 265:25 266:25 267:25 268:25 269:25 270:25 271:25 272:25 273:25 274:25 275:25 276:25 277:25 278:25 279:25 280:25 281:25 282:25 283:25 284:25 285:25 286:25 287:25 288:25 289:25 290:25 291:25 292:25 293:25 294:25 295:25 296:25 297:25 298:25 299:25 300:25 301:25 302:25 303:25 304:25 305:25 306:25 307:25 308:25 309:25 310:25 311:25 312:25 313:25 314:25 315:25 316:25 317:25 318:25 319:25 320:25 321:25 322:25 323:25 324:25 325:25 326:25 327:25 328:25 329:25 330:25 331:25 332:25 333:25 334:25 335:25 336:25 337:25 338:25 339:25 340:25 341:25 342:25 343:25 344:25 345:25 346:25 347:25 348:25 349:25 350:25 351:25 352:25 353:25 354:25 355:25 356:25 357:25 358:25 359:25 360:25 361:25 362:25 363:25 364:25 365:25 366:25 367:25 368:25 369:25 370:25 371:25 372:25 373:25 374:25 375:25 376:25 377:25 378:25 379:25 380:25 381:25 382:25 383:25 384:25 385:25 386:25 387:25 388:25 389:25 390:25 391:25 392:25 393:25 394:25 395:25 396:25 397:25 398:25 399:25 400:25 
0.7107073536558877 1:25 2:25 3:25 4:25 5:25 6:25 7:25 8:25 9:25 10:25 11:25 12:25 13:25 14:25 15:25 16:25 17:25 18:25 19:25 20:25 21:25 22:25 23:25 24:25 25:25 26:25 27:25 28:25 29:25 30:25 31:25 32:25 33:25 34:25 35:25 36:25 37:25 38:25 39:25 40:25 41:25 42:25 43:25 44:25 45:25 46:25 47:25 48:25 49:25 50:25 51:25 52:25 53:25 54:25 55:25 56:25 57:25 58:25 59:25 60:25 61:25 62:25 63:25 64:25 65:25 66:25 67:25 68:25 69:25 70:25 71:25 72:25 73:25 74:25 75:25 76:25 77:25 78:25 79:25 80:25 81:25 82:25 83:25 84:25 85:25 86:25 87:25 88:25 89:25 90:25 91:25 92:25 93:25 94:25 95:25 96:25 97:25 98:25 99:25 100:25 101:25 102:25 103:25 104:25 105:25 106:25 107:25 108:25 109:25 110:25 111:25 112:25 113:25 114:25 115:25 116:25 117:25 118:25 119:25 120:25 121:25 122:25 123:25 124:25 125:25 126:25 127:25 128:25 129:25 130:25 131:25 132:25 133:62 134:62 135:25 136:25 137:25 138:25 139:25 140:25 141:25 142:25 143:25 144:25 145:25 146:25 147:25 148:25 149:25 150:37 151:25 152:25 153:25 154:37 155:25 156:25 157:25 158:25 159:25 160:25 161:25 162:25 163:25 164:25 165:25 166:25 167:25 168:25 169:25 170:25 171:25 172:87 173:249 174:37 175:37 176:25 177:25 178:25 179:25 180:25 181:25 182:25 183:25 184:25 185:25 186:25 187:25 188:25 189:25 190:25 191:25 192:125 193:174 194:25 195:25 196:25 197:25 198:25 199:25 200:25 201:25 202:25 203:25 204:25 205:25 206:25 207:25 208:25 209:25 210:25 211:37 212:25 213:25 214:25 215:25 216:25 217:25 218:25 219:25 220:25 221:25 222:25 223:25 224:25 225:25 226:25 227:25 228:25 229:25 230:25 231:25 232:25 233:37 234:25 235:25 236:25 237:25 238:25 239:25 240:25 241:25 242:25 243:25 244:25 245:25 246:25 247:25 248:25 249:25 250:25 251:25 252:25 253:25 254:25 255:25 256:25 257:25 258:25 259:25 260:25 261:25 262:25 263:25 264:25 265:25 266:25 267:25 268:25 269:25 270:25 271:25 272:25 273:25 274:25 275:25 276:25 277:25 278:25 279:25 280:25 281:25 282:25 283:25 284:25 285:25 286:25 287:25 288:25 289:25 290:25 291:25 292:25 293:25 294:25 295:25 296:25 297:25 298:25 299:25 300:25 301:25 302:25 303:25 304:25 305:25 306:25 307:25 308:25 309:25 310:25 311:25 312:25 313:25 314:25 315:25 316:25 317:25 318:25 319:25 320:25 321:25 322:25 323:25 324:25 325:25 326:25 327:25 328:25 329:25 330:25 331:25 332:25 333:25 334:25 335:25 336:25 337:25 338:25 339:25 340:25 341:25 342:25 343:25 344:25 345:25 346:25 347:25 348:25 349:25 350:25 351:25 352:25 353:25 354:25 355:25 356:25 357:25 358:25 359:25 360:25 361:25 362:25 363:25 364:25 365:25 366:25 367:25 368:25 369:25 370:25 371:25 372:25 373:25 374:25 375:25 376:25 377:25 378:25 379:25 380:25 381:25 382:25 383:25 384:25 385:25 386:25 387:25 388:25 389:25 390:25 391:25 392:25 393:25 394:25 395:25 396:25 397:25 398:25 399:25 400:25 
1 1:25 2:25 3:25 4:25 5:25 6:25 7:25 8:25 9:25 10:25 11:25 12:25 13:25 14:25 15:25 16:25 17:25 18:25 19:25 20:25 21:25 22:25 23:25 24:25 25:25 26:25 27:25 28:25 29:25 30:25 31:25 32:25 33:25 34:25 35:25 36:25 37:25 38:25 39:25 40:25 41:25 42:25 43:25 44:25 45:25 46:25 47:25 48:25 49:25 50:25 51:25 52:25 53:25 54:25 55:25 56:25 57:25 58:25 59:25 60:25 61:25 62:25 63:25 64:25 65:25 66:25 67:25 68:25 69:25 70:25 71:25 72:25 73:25 74:25 75:25 76:25 77:25 78:25 79:25 80:25 81:25 82:25 83:25 84:25 85:25 86:25 87:25 88:25 89:25 90:25 91:25 92:25 93:25 94:25 95:25 96:25 97:25 98:25 99:25 100:25 101:25 102:25 103:25 104:25 105:25 106:25 107:25 108:25 109:25 110:25 111:25 112:25 113:25 114:25 115:25 116:25 117:25 118:25 119:25 120:25 121:25 122:25 123:25 124:25 125:25 126:25 127:25 128:25 129:25 130:25 131:25 132:25 133:25 134:25 135:25 136:25 137:25 138:25 139:25 140:25 141:25 142:25 143:25 144:25 145:25 146:25 147:25 148:25 149:25 150:25 151:25 152:25 153:25 154:25 155:25 156:25 157:25 158:25 159:25 160:25 161:25 162:25 163:25 164:25 165:25 166:25 167:25 168:25 169:25 170:25 171:25 172:25 173:25 174:50 175:25 176:25 177:25 178:25 179:25 180:25 181:25 182:25 183:25 184:25 185:25 186:25 187:25 188:25 189:25 190:25 191:25 192:25 193:37 194:25 195:25 196:25 197:25 198:25 199:25 200:25 201:25 202:25 203:25 204:25 205:25 206:25 207:25 208:50 209:25 210:25 211:25 212:236 213:50 214:25 215:25 216:25 217:25 218:25 219:25 220:25 221:25 222:25 223:25 224:25 225:25 226:25 227:25 228:137 229:37 230:25 231:224 232:75 233:25 234:25 235:25 236:25 237:25 238:25 239:25 240:25 241:25 242:25 243:25 244:25 245:25 246:25 247:62 248:224 249:25 250:25 251:112 252:37 253:25 254:25 255:25 256:25 257:25 258:25 259:25 260:25 261:25 262:25 263:25 264:25 265:25 266:25 267:249 268:75 269:25 270:25 271:37 272:25 273:25 274:25 275:25 276:25 277:25 278:25 279:25 280:25 281:25 282:25 283:25 284:25 285:25 286:37 287:25 288:25 289:25 290:25 291:25 292:25 293:25 294:25 295:25 296:25 297:25 298:25 299:25 300:25 301:25 302:25 303:25 304:25 305:25 306:25 307:37 308:25 309:25 310:25 311:25 312:25 313:25 314:25 315:25 316:25 317:25 318:25 319:25 320:25 321:25 322:25 323:25 324:25 325:25 326:25 327:25 328:25 329:25 330:25 331:25 332:25 333:25 334:25 335:25 336:25 337:25 338:25 339:25 340:25 341:25 342:25 343:25 344:25 345:25 346:25 347:25 348:25 349:25 350:25 351:25 352:25 353:25 354:25 355:25 356:25 357:25 358:25 359:25 360:25 361:25 362:25 363:25 364:25 365:25 366:25 367:25 368:25 369:25 370:25 371:25 372:25 373:25 374:25 375:25 376:25 377:25 378:25 379:25 380:25 381:25 382:25 383:25 384:25 385:25 386:25 387:25 388:25 389:25 390:25 391:25 392:25 393:25 394:25 395:25 396:25 397:25 398:25 399:25 400:25 
0.1378861694869767 1:25 2:100 3:75 4:25 5:37 6:25 7:25 8:25 9:25 10:25 11:25 12:25 13:25 14:25 15:25 16:25 17:25 18:25 19:25 20:25 21:50 22:100 23:112 24:25 25:37 26:25 27:25 28:25 29:25 30:25 31:25 32:25 33:25 34:25 35:25 36:25 37:25 38:25 39:25 40:25 41:162 42:174 43:25 44:25 45:25 46:25 47:25 48:25 49:25 50:25 51:25 52:25 53:25 54:25 55:25 56:25 57:25 58:25 59:25 60:25 61:25 62:25 63:25 64:25 65:25 66:25 67:25 68:25 69:25 70:25 71:25 72:25 73:25 74:25 75:25 76:25 77:25 78:25 79:25 80:25 81:25 82:37 83:25 84:25 85:25 86:25 87:25 88:25 89:25 90:25 91:25 92:25 93:25 94:25 95:25 96:25 97:25 98:25 99:25 100:25 101:25 102:25 103:25 104:25 105:25 106:25 107:25 108:25 109:25 110:25 111:25 112:25 113:25 114:25 115:25 116:25 117:25 118:25 119:25 120:25 121:25 122:25 123:25 124:25 125:25 126:25 127:25 128:25 129:25 130:25 131:25 132:25 133:25 134:25 135:25 136:25 137:25 138:25 139:25 140:25 141:25 142:25 143:25 144:25 145:25 146:25 147:25 148:25 149:25 150:25 151:25 152:37 153:25 154:25 155:25 156:25 157:25 158:25 159:25 160:25 161:25 162:25 163:25 164:25 165:25 166:25 167:25 168:25 169:25 170:25 171:25 172:25 173:25 174:25 175:25 176:25 177:25 178:25 179:25 180:25 181:25 182:25 183:25 184:25 185:25 186:25 187:25 188:25 189:25 190:25 191:25 192:125 193:75 194:25 195:25 196:25 197:25 198:25 199:25 200:25 201:25 202:25 203:25 204:25 205:25 206:25 207:25 208:25 209:25 210:25 211:100 212:236 213:62 214:25 215:25 216:25 217:25 218:25 219:25 220:25 221:25 222:25 223:25 224:25 225:25 226:25 227:25 228:25 229:25 230:25 231:174 232:50 233:25 234:25 235:25 236:25 237:25 238:25 239:25 240:25 241:25 242:25 243:25 244:25 245:25 246:25 247:25 248:25 249:25 250:25 251:25 252:25 253:25 254:25 255:25 256:25 257:25 258:25 259:25 260:25 261:25 262:25 263:25 264:25 265:25 266:25 267:25 268:25 269:25 270:25 271:37 272:25 273:25 274:25 275:25 276:25 277:25 278:25 279:25 280:25 281:25 282:25 283:25 284:25 285:25 286:25 287:25 288:25 289:25 290:25 291:25 292:25 293:25 294:25 295:25 296:25 297:25 298:25 299:25 300:25 301:25 302:25 303:25 304:25 305:25 306:25 307:25 308:25 309:25 310:25 311:25 312:25 313:25 314:25 315:25 316:25 317:25 318:25 319:25 320:25 321:25 322:25 323:25 324:25 325:25 326:25 327:25 328:25 329:25 330:25 331:25 332:25 333:25 334:25 335:25 336:25 337:25 338:25 339:25 340:25 341:25 342:25 343:25 344:25 345:25 346:25 347:25 348:25 349:25 350:25 351:25 352:25 353:25 354:25 355:25 356:25 357:25 358:25 359:25 360:25 361:25 362:25 363:25 364:25 365:25 366:25 367:25 368:25 369:25 370:25 371:25 372:25 373:25 374:25 375:25 376:25 377:25 378:25 379:25 380:25 381:25 382:25 383:25 384:25 385:25 386:25 387:25 388:25 389:25 390:25 391:25 392:25 393:25 394:25 395:25 396:25 397:25 398:25 399:25 400:25 
0.2183611707332074 1:25 2:25 3:25 4:25 5:25 6:25 7:25 8:25 9:25 10:25 11:25 12:25 13:25 14:25 15:25 16:25 17:25 18:25 19:25 20:25 21:25 22:25 23:25 24:25 25:25 26:25 27:25 28:25 29:25 30:25 31:25 32:25 33:25 34:25 35:25 36:25 37:25 38:25 39:25 40:25 41:25 42:25 43:25 44:25 45:25 46:25 47:25 48:25 49:25 50:25 51:25 52:25 53:25 54:25 55:25 56:25 57:25 58:25 59:25 60:25 61:25 62:25 63:25 64:25 65:25 66:25 67:25 68:25 69:25 70:25 71:25 72:25 73:25 74:25 75:25 76:25 77:25 78:25 79:25 80:25 81:25 82:25 83:25 84:25 85:25 86:25 87:25 88:25 89:25 90:25 91:25 92:25 93:25 94:25 95:25 96:25 97:25 98:25 99:25 100:25 101:25 102:25 103:25 104:25 105:25 106:25 107:25 108:25 109:25 110:25 111:25 112:25 113:25 114:25 115:25 116:25 117:25 118:25 119:25 120:25 121:25 122:25 123:25 124:25 125:25 126:25 127:25 128:25 129:25 130:25 131:25 132:25 133:25 134:25 135:25 136:25 137:25 138:25 139:25 140:25 141:25 142:25 143:25 144:25 145:25 146:25 147:25 148:25 149:25 150:25 151:25 152:37 153:25 154:25 155:25 156:25 157:25 158:25 159:25 160:25 161:25 162:25 163:25 164:25 165:25 166:25 167:25 168:62 169:37 170:25 171:25 172:25 173:25 174:37 175:37 176:25 177:25 178:25 179:25 180:25 181:25 182:25 183:25 184:25 185:25 186:25 187:25 188:25 189:37 190:37 191:37 192:100 193:112 194:25 195:37 196:25 197:25 198:25 199:25 200:25 201:25 202:25 203:25 204:25 205:25 206:25 207:25 208:112 209:62 210:25 211:124 212:149 213:100 214:25 215:37 216:25 217:25 218:25 219:25 220:25 221:25 222:25 223:25 224:25 225:25 226:25 227:37 228:199 229:50 230:25 231:162 232:149 233:25 234:25 235:25 236:25 237:25 238:25 239:25 240:25 241:25 242:25 243:25 244:25 245:25 246:37 247:255 248:62 249:25 250:37 251:37 252:25 253:25 254:25 255:25 256:25 257:25 258:25 259:25 260:25 261:25 262:25 263:25 264:25 265:37 266:25 267:137 268:37 269:25 270:25 271:25 272:25 273:25 274:25 275:25 276:25 277:25 278:25 279:25 280:25 281:25 282:25 283:25 284:25 285:25 286:25 287:25 288:25 289:25 290:25 291:25 292:25 293:25 294:25 295:25 296:25 297:25 298:25 299:25 300:25 301:25 302:25 303:25 304:25 305:25 306:37 307:25 308:25 309:25 310:25 311:25 312:25 313:25 314:25 315:25 316:25 317:25 318:25 319:25 320:25 321:25 322:25 323:25 324:25 325:25 326:25 327:25 328:25 329:25 330:25 331:25 332:25 333:25 334:25 335:25 336:25 337:25 338:25 339:25 340:25 341:25 342:25 343:25 344:25 345:25 346:25 347:25 348:25 349:25 350:25 351:25 352:25 353:25 354:25 355:25 356:25 357:25 358:25 359:25 360:25 361:25 362:25 363:25 364:25 365:25 366:25 367:25 368:25 369:25 370:25 371:25 372:25 373:25 374:25 375:25 376:25 377:25 378:25 379:25 380:25 381:25 382:25 383:25 384:25 385:25 386:25 387:25 388:25 389:25 390:25 391:25 392:25 393:25 394:25 395:25 396:25 397:25 398:25 399:25 400:25 
0.310159730075127 1:25 2:25 3:25 4:25 5:25 6:25 7:25 8:25 9:25 10:25 11:25 12:25 13:25 14:25 15:25 16:25 17:25 18:25 19:25 20:25 21:25 22:25 23:25 24:25 25:25 26:25 27:25 28:25 29:25 30:25 31:25 32:25 33:25 34:25 35:25 36:25 37:25 38:25 39:25 40:25 41:25 42:25 43:25 44:25 45:25 46:25 47:25 48:25 49:25 50:25 51:25 52:25 53:25 54:25 55:25 56:25 57:25 58:25 59:25 60:25 61:25 62:25 63:25 64:25 65:25 66:25 67:25 68:25 69:25 70:25 71:25 72:25 73:25 74:25 75:25 76:25 77:25 78:25 79:25 80:25 81:25 82:25 83:25 84:25 85:25 86:25 87:25 88:25 89:25 90:25 91:25 92:25 93:25 94:25 95:25 96:25 97:25 98:25 99:25 100:25 101:25 102:25 103:25 104:25 105:25 106:25 107:25 108:25 109:25 110:25 111:25 112:25 113:25 114:25 115:25 116:25 117:25 118:25 119:25 120:25 121:25 122:25 123:25 124:25 125:25 126:25 127:25 128:25 129:25 130:25 131:25 132:37 133:25 134:25 135:25 136:25 137:25 138:25 139:25 140:25 141:25 142:25 143:25 144:25 145:25 146:25 147:25 148:25 149:25 150:25 151:25 152:37 153:25 154:37 155:25 156:25 157:25 158:25 159:25 160:25 161:25 162:25 163:25 164:25 165:25 166:25 167:25 168:25 169:25 170:25 171:25 172:25 173:25 174:37 175:25 176:25 177:25 178:25 179:25 180:25 181:25 182:25 183:25 184:25 185:25 186:25 187:25 188:25 189:25 190:25 191:25 192:87 193:100 194:37 195:25 196:25 197:25 198:25 199:25 200:25 201:25 202:25 203:25 204:25 205:25 206:25 207:25 208:25 209:37 210:25 211:255 212:62 213:87 214:25 215:25 216:25 217:25 218:25 219:25 220:25 221:25 222:25 223:25 224:25 225:25 226:25 227:25 228:25 229:25 230:37 231:199 232:50 233:25 234:25 235:25 236:25 237:25 238:25 239:25 240:25 241:25 242:25 243:25 244:25 245:25 246:25 247:25 248:25 249:25 250:25 251:25 252:25 253:25 254:25 255:25 256:25 257:25 258:25 259:25 260:25 261:25 262:25 263:25 264:25 265:25 266:25 267:25 268:25 269:25 270:25 271:25 272:25 273:25 274:25 275:25 276:25 277:25 278:25 279:25 280:25 281:25 282:25 283:25 284:25 285:25 286:25 287:25 288:25 289:25 290:25 291:25 292:25 293:25 294:25 295:25 296:25 297:25 298:25 299:25 300:25 301:25 302:25 303:25 304:37 305:25 306:25 307:25 308:25 309:25 310:25 311:25 312:25 313:25 314:25 315:25 316:25 317:25 318:25 319:25 320:25 321:25 322:25 323:25 324:112 325:25 326:25 327:25 328:25 329:25 330:25 331:25 332:25 333:25 334:25 335:25 336:25 337:25 338:25 339:25 340:25 341:25 342:25 343:199 344:112 345:25 346:25 347:25 348:25 349:25 350:25 351:25 352:25 353:25 354:25 355:25 356:25 357:25 358:25 359:25 360:25 361:25 362:62 363:199 364:25 365:25 366:25 367:25 368:25 369:25 370:25 371:25 372:25 373:25 374:25 375:25 376:25 377:25 378:25 379:25 380:25 381:25 382:25 383:25 384:25 385:25 386:25 387:25 388:25 389:25 390:25 391:25 392:25 393:25 394:25 395:25 396:25 397:25 398:25 399:25 400:25 
0.551280173518886 1:25 2:25 3:25 4:25 5:25 6:25 7:25 8:25 9:25 10:25 11:25 12:25 13:25 14:25 15:25 16:25 17:25 18:25 19:25 20:25 21:25 22:25 23:25 24:25 25:25 26:25 27:25 28:25 29:25 30:25 31:25 32:25 33:25 34:25 35:25 36:25 37:25 38:25 39:25 40:25 41:25 42:25 43:25 44:25 45:25 46:25 47:25 48:25 49:25 50:25 51:25 52:25 53:25 54:25 55:25 56:25 57:25 58:25 59:25 60:25 61:25 62:25 63:25 64:25 65:25 66:25 67:25 68:25 69:25 70:25 71:25 72:25 73:25 74:25 75:25 76:25 77:25 78:25 79:25 80:25 81:25 82:25 83:25 84:25 85:25 86:25 87:25 88:25 89:25 90:25 91:25 92:25 93:25 94:25 95:25 96:25 97:25 98:25 99:25 100:25 101:25 102:25 103:25 104:25 105:25 106:25 107:25 108:25 109:25 110:25 111:25 112:25 113:25 114:25 115:25 116:25 117:25 118:25 119:25 120:25 121:25 122:25 123:25 124:25 125:25 126:25 127:25 128:25 129:25 130:25 131:25 132:25 133:25 134:25 135:25 136:25 137:25 138:25 139:25 140:25 141:25 142:25 143:25 144:25 145:25 146:25 147:25 148:25 149:25 150:25 151:25 152:25 153:25 154:25 155:25 156:25 157:25 158:25 159:25 160:37 161:25 162:25 163:25 164:25 165:25 166:25 167:25 168:25 169:25 170:25 171:25 172:50 173:37 174:25 175:25 176:25 177:25 178:25 179:25 180:75 181:25 182:25 183:25 184:25 185:25 186:25 187:25 188:25 189:25 190:25 191:87 192:37 193:37 194:37 195:25 196:25 197:25 198:25 199:25 200:249 201:25 202:25 203:25 204:25 205:25 206:25 207:25 208:25 209:25 210:62 211:75 212:50 213:25 214:50 215:25 216:25 217:25 218:25 219:255 220:37 221:25 222:25 223:25 224:25 225:25 226:25 227:25 228:25 229:25 230:174 231:224 232:25 233:25 234:25 235:25 236:25 237:37 238:25 239:50 240:25 241:25 242:25 243:25 244:25 245:25 246:25 247:25 248:25 249:25 250:25 251:25 252:25 253:25 254:25 255:25 256:25 257:25 258:25 259:25 260:25 261:25 262:25 263:25 264:25 265:25 266:25 267:25 268:25 269:25 270:25 271:25 272:25 273:25 274:25 275:25 276:25 277:25 278:25 279:25 280:25 281:25 282:25 283:25 284:25 285:25 286:25 287:25 288:25 289:25 290:25 291:25 292:25 293:25 294:25 295:25 296:25 297:25 298:25 299:25 300:25 301:25 302:25 303:25 304:25 305:25 306:25 307:25 308:25 309:25 310:25 311:25 312:25 313:25 314:25 315:25 316:25 317:25 318:25 319:25 320:25 321:25 322:25 323:25 324:25 325:25 326:25 327:25 328:25 329:25 330:25 331:25 332:25 333:25 334:25 335:25 336:25 337:25 338:25 339:25 340:25 341:25 342:25 343:25 344:25 345:25 346:25 347:25 348:25 349:25 350:25 351:25 352:25 353:25 354:25 355:25 356:25 357:25 358:25 359:25 360:25 361:25 362:25 363:25 364:25 365:25 366:25 367:25 368:25 369:25 370:25 371:25 372:25 373:25 374:25 375:25 376:25 377:25 378:25 379:25 380:25 381:25 382:25 383:25 384:25 385:25 386:25 387:25 388:25 389:25 390:25 391:25 392:25 393:25 394:25 395:25 396:25 397:25 398:25 399:25 400:25 
0.4805835400217915 1:25 2:25 3:25 4:25 5:25 6:25 7:25 8:25 9:25 10:25 11:25 12:25 13:25 14:25 15:25 16:25 17:25 18:25 19:25 20:25 21:25 22:25 23:25 24:25 25:25 26:25 27:25 28:25 29:25 30:25 31:25 32:25 33:25 34:25 35:25 36:25 37:25 38:25 39:25 40:25 41:25 42:25 43:25 44:25 45:25 46:25 47:25 48:25 49:25 50:25 51:25 52:25 53:25 54:25 55:25 56:25 57:25 58:25 59:25 60:25 61:25 62:25 63:25 64:25 65:25 66:25 67:25 68:25 69:25 70:25 71:25 72:25 73:25 74:25 75:25 76:25 77:25 78:25 79:25 80:25 81:25 82:25 83:25 84:25 85:25 86:25 87:25 88:25 89:25 90:25 91:25 92:25 93:25 94:25 95:25 96:25 97:25 98:25 99:25 100:25 101:25 102:25 103:25 104:25 105:25 106:25 107:25 108:25 109:25 110:25 111:25 112:25 113:25 114:25 115:25 116:25 117:25 118:25 119:25 120:25 121:25 122:25 123:25 124:25 125:25 126:25 127:25 128:25 129:25 130:25 131:25 132:25 133:25 134:25 135:25 136:25 137:25 138:25 139:25 140:25 141:25 142:25 143:25 144:25 145:25 146:25 147:25 148:25 149:25 150:25 151:25 152:25 153:25 154:25 155:25 156:25 157:25 158:25 159:25 160:25 161:25 162:25 163:25 164:25 165:25 166:25 167:25 168:25 169:25 170:37 171:25 172:25 173:25 174:25 175:25 176:25 177:25 178:25 179:25 180:25 181:25 182:25 183:25 184:25 185:25 186:25 187:25 188:25 189:25 190:25 191:37 192:37 193:25 194:25 195:25 196:25 197:25 198:25 199:25 200:25 201:25 202:25 203:25 204:25 205:25 206:25 207:25 208:25 209:100 210:112 211:25 212:25 213:25 214:25 215:25 216:25 217:25 218:25 219:25 220:25 221:25 222:25 223:25 224:25 225:25 226:25 227:25 228:100 229:162 230:37 231:25 232:25 233:25 234:25 235:25 236:25 237:25 238:25 239:25 240:25 241:25 242:25 243:25 244:25 245:25 246:25 247:37 248:87 249:112 250:25 251:25 252:25 253:25 254:25 255:25 256:25 257:25 258:25 259:25 260:25 261:25 262:25 263:25 264:25 265:25 266:25 267:25 268:25 269:25 270:25 271:25 272:25 273:25 274:25 275:25 276:25 277:25 278:25 279:25 280:25 281:25 282:25 283:25 284:25 285:25 286:25 287:25 288:25 289:25 290:25 291:25 292:25 293:25 294:25 295:25 296:25 297:25 298:25 299:25 300:25 301:25 302:25 303:25 304:25 305:25 306:25 307:25 308:25 309:25 310:25 311:25 312:25 313:25 314:25 315:25 316:25 317:25 318:25 319:25 320:25 321:25 322:25 323:25 324:25 325:25 326:25 327:25 328:25 329:25 330:25 331:25 332:25 333:25 334:25 335:25 336:25 337:25 338:25 339:25 340:25 341:25 342:25 343:25 344:25 345:25 346:25 347:25 348:25 349:25 350:25 351:25 352:25 353:25 354:25 355:25 356:25 357:25 358:25 359:25 360:25 361:25 362:25 363:25 364:25 365:25 366:25 367:25 368:25 369:25 370:25 371:25 372:25 373:25 374:25 375:25 376:25 377:25 378:25 379:25 380:25 381:25 382:25 383:25 384:25 385:25 386:25 387:25 388:25 389:25 390:25 391:25 392:25 393:25 394:25 395:25 396:25 397:25 398:25 399:25 400:25 
0.7380768416423225 1:25 2:25 3:25 4:25 5:25 6:25 7:25 8:25 9:25 10:25 11:25 12:25 13:25 14:25 15:25 16:25 17:25 18:25 19:25 20:25 21:25 22:25 23:25 24:25 25:25 26:25 27:25 28:25 29:25 30:25 31:25 32:25 33:25 34:25 35:25 36:25 37:25 38:25 39:25 40:25 41:25 42:25 43:25 44:25 45:25 46:25 47:25 48:25 49:25 50:37 51:25 52:25 53:25 54:25 55:25 56:25 57:25 58:25 59:25 60:25 61:25 62:25 63:25 64:25 65:25 66:25 67:25 68:25 69:25 70:50 71:50 72:25 73:25 74:25 75:25 76:25 77:25 78:25 79:25 80:25 81:25 82:25 83:25 84:25 85:25 86:25 87:25 88:25 89:25 90:249 91:87 92:25 93:25 94:25 95:25 96:25 97:25 98:25 99:25 100:25 101:25 102:25 103:25 104:25 105:25 106:25 107:25 108:25 109:249 110:50 111:25 112:25 113:25 114:25 115:25 116:25 117:25 118:25 119:25 120:25 121:25 122:25 123:25 124:25 125:25 126:25 127:25 128:25 129:212 130:25 131:25 132:25 133:25 134:25 135:25 136:25 137:25 138:25 139:25 140:25 141:25 142:25 143:25 144:25 145:25 146:25 147:25 148:25 149:50 150:25 151:50 152:25 153:25 154:25 155:25 156:25 157:25 158:25 159:25 160:25 161:25 162:25 163:25 164:25 165:25 166:25 167:25 168:25 169:25 170:25 171:25 172:37 173:37 174:25 175:25 176:25 177:25 178:25 179:25 180:25 181:25 182:25 183:25 184:25 185:25 186:25 187:25 188:25 189:25 190:25 191:162 192:187 193:25 194:25 195:25 196:25 197:25 198:25 199:25 200:25 201:25 202:25 203:25 204:25 205:25 206:25 207:25 208:25 209:25 210:62 211:162 212:100 213:25 214:37 215:25 216:25 217:25 218:25 219:25 220:25 221:25 222:25 223:25 224:25 225:25 226:25 227:25 228:25 229:25 230:187 231:149 232:25 233:25 234:25 235:25 236:25 237:25 238:25 239:25 240:25 241:25 242:25 243:25 244:25 245:25 246:25 247:25 248:25 249:25 250:25 251:37 252:25 253:25 254:25 255:25 256:25 257:25 258:25 259:25 260:25 261:25 262:25 263:25 264:25 265:25 266:25 267:25 268:25 269:25 270:25 271:25 272:25 273:25 274:25 275:25 276:25 277:25 278:25 279:25 280:25 281:25 282:25 283:25 284:25 285:25 286:25 287:25 288:25 289:25 290:25 291:25 292:25 293:25 294:25 295:25 296:25 297:25 298:25 299:25 300:25 301:25 302:25 303:25 304:25 305:25 306:25 307:25 308:25 309:25 310:25 311:25 312:25 313:25 314:25 315:25 316:25 317:25 318:25 319:25 320:25 321:25 322:25 323:25 324:25 325:25 326:25 327:25 328:25 329:25 330:25 331:25 332:25 333:25 334:25 335:25 336:25 337:25 338:25 339:25 340:25 341:25 342:25 343:25 344:25 345:25 346:25 347:25 348:25 349:25 350:25 351:25 352:25 353:25 354:25 355:25 356:25 357:25 358:25 359:25 360:25 361:25 362:25 363:25 364:25 365:25 366:25 367:25 368:25 369:25 370:25 371:25 372:25 373:25 374:25 375:25 376:25 377:25 378:25 379:25 380:25 381:25 382:25 383:25 384:25 385:25 386:25 387:25 388:25 389:25 390:25 391:25 392:25 393:25 394:25 395:25 396:25 397:25 398:25 399:25 400:25 
0.9259796598269792 1:25 2:25 3:25 4:25 5:25 6:25 7:25 8:25 9:25 10:25 11:25 12:25 13:25 14:25 15:25 16:25 17:25 18:25 19:25 20:25 21:25 22:25 23:25 24:25 25:25 26:25 27:25 28:25 29:25 30:25 31:25 32:25 33:25 34:25 35:25 36:25 37:25 38:25 39:25 40:25 41:25 42:25 43:25 44:25 45:25 46:25 47:25 48:25 49:25 50:25 51:25 52:25 53:25 54:25 55:25 56:25 57:25 58:25 59:25 60:25 61:25 62:25 63:25 64:25 65:25 66:25 67:25 68:25 69:25 70:25 71:25 72:25 73:25 74:25 75:25 76:25 77:25 78:25 79:25 80:25 81:25 82:25 83:25 84:25 85:25 86:25 87:25 88:25 89:25 90:25 91:25 92:25 93:25 94:25 95:25 96:25 97:25 98:25 99:25 100:25 101:25 102:25 103:25 104:25 105:25 106:25 107:25 108:25 109:25 110:25 111:25 112:37 113:37 114:25 115:25 116:25 117:25 118:25 119:25 120:25 121:25 122:25 123:25 124:25 125:25 126:25 127:25 128:25 129:25 130:25 131:25 132:25 133:25 134:25 135:25 136:25 137:25 138:25 139:25 140:25 141:25 142:25 143:25 144:25 145:25 146:25 147:25 148:25 149:25 150:25 151:25 152:112 153:25 154:25 155:25 156:25 157:25 158:25 159:25 160:25 161:25 162:25 163:25 164:25 165:25 166:25 167:25 168:25 169:25 170:25 171:137 172:212 173:75 174:37 175:25 176:25 177:25 178:25 179:25 180:25 181:25 182:25 183:25 184:25 185:25 186:25 187:25 188:25 189:25 190:25 191:224 192:25 193:25 194:25 195:25 196:25 197:25 198:25 199:25 200:25 201:25 202:25 203:25 204:25 205:25 206:25 207:25 208:25 209:25 210:25 211:37 212:25 213:25 214:25 215:25 216:25 217:25 218:25 219:25 220:25 221:25 222:25 223:25 224:25 225:25 226:25 227:25 228:25 229:25 230:25 231:25 232:25 233:25 234:25 235:25 236:25 237:25 238:25 239:25 240:25 241:25 242:25 243:25 244:25 245:25 246:25 247:25 248:37 249:50 250:25 251:25 252:25 253:25 254:25 255:25 256:25 257:25 258:25 259:25 260:25 261:25 262:25 263:25 264:25 265:25 266:25 267:25 268:137 269:25 270:37 271:25 272:25 273:25 274:25 275:25 276:25 277:25 278:25 279:25 280:25 281:25 282:25 283:25 284:25 285:25 286:25 287:125 288:174 289:25 290:37 291:25 292:25 293:25 294:25 295:25 296:25 297:25 298:25 299:25 300:25 301:25 302:25 303:25 304:25 305:25 306:37 307:212 308:25 309:25 310:25 311:25 312:25 313:25 314:25 315:25 316:25 317:25 318:25 319:25 320:25 321:25 322:25 323:25 324:25 325:37 326:37 327:37 328:25 329:25 330:25 331:25 332:25 333:25 334:25 335:25 336:25 337:25 338:25 339:25 340:25 341:25 342:25 343:25 344:25 345:25 346:25 347:25 348:25 349:25 350:25 351:25 352:25 353:25 354:25 355:25 356:25 357:25 358:25 359:25 360:25 361:25 362:25 363:25 364:25 365:25 366:25 367:25 368:25 369:25 370:25 371:25 372:25 373:25 374:25 375:25 376:25 377:25 378:25 379:25 380:25 381:25 382:25 383:25 384:25 385:25 386:25 387:25 388:25 389:25 390:25 391:25 392:25 393:25 394:25 395:25 396:25 397:25 398:25 399:25 400:25 
1 1:25 2:25 3:25 4:25 5:25 6:25 7:25 8:25 9:25 10:25 11:25 12:25 13:25 14:25 15:25 16:25 17:25 18:25 19:25 20:25 21:25 22:25 23:25 24:25 25:25 26:25 27:25 28:25 29:25 30:25 31:25 32:25 33:25 34:25 35:25 36:25 37:25 38:25 39:25 40:25 41:25 42:25 43:25 44:25 45:25 46:25 47:25 48:25 49:25 50:25 51:25 52:25 53:25 54:25 55:25 56:25 57:25 58:25 59:25 60:25 61:25 62:25 63:25 64:25 65:25 66:25 67:25 68:25 69:25 70:25 71:25 72:25 73:25 74:25 75:25 76:25 77:25 78:25 79:25 80:25 81:25 82:25 83:25 84:25 85:25 86:25 87:25 88:25 89:25 90:25 91:25 92:25 93:25 94:25 95:25 96:25 97:25 98:25 99:25 100:25 101:25 102:25 103:25 104:25 105:25 106:25 107:25 108:25 109:25 110:25 111:25 112:25 113:25 114:25 115:25 116:25 117:25 118:25 119:25 120:25 121:25 122:25 123:25 124:25 125:25 126:25 127:25 128:25 129:25 130:25 131:25 132:25 133:25 134:25 135:25 136:25 137:25 138:25 139:25 140:25 141:25 142:25 143:25 144:25 145:25 146:25 147:25 148:25 149:25 150:25 151:25 152:25 153:25 154:25 155:25 156:25 157:25 158:25 159:25 160:25 161:25 162:25 163:25 164:25 165:25 166:25 167:25 168:25 169:25 170:37 171:37 172:25 173:25 174:25 175:25 176:25 177:25 178:25 179:25 180:25 181:25 182:25 183:25 184:25 185:25 186:25 187:25 188:25 189:62 190:112 191:25 192:25 193:25 194:25 195:25 196:25 197:25 198:25 199:25 200:25 201:25 202:25 203:25 204:25 205:25 206:25 207:25 208:25 209:174 210:25 211:25 212:25 213:25 214:25 215:25 216:25 217:25 218:25 219:25 220:25 221:25 222:25 223:25 224:25 225:25 226:25 227:25 228:25 229:25 230:25 231:25 232:25 233:25 234:25 235:25 236:25 237:25 238:25 239:25 240:25 241:25 242:25 243:25 244:25 245:25 246:25 247:25 248:25 249:25 250:25 251:25 252:25 253:25 254:25 255:25 256:25 257:25 258:25 259:25 260:25 261:25 262:25 263:25 264:25 265:25 266:25 267:25 268:25 269:25 270:25 271:25 272:25 273:25 274:25 275:25 276:25 277:25 278:25 279:25 280:25 281:25 282:25 283:25 284:25 285:25 286:25 287:25 288:25 289:25 290:25 291:25 292:25 293:25 294:25 295:25 296:25 297:25 298:25 299:25 300:25 301:25 302:25 303:25 304:25 305:25 306:25 307:25 308:25 309:25 310:25 311:25 312:25 313:25 314:25 315:25 316:25 317:25 318:25 319:25 320:25 321:25 322:25 323:25 324:25 325:25 326:25 327:25 328:25 329:25 330:25 331:25 332:25 333:25 334:25 335:25 336:25 337:25 338:25 339:25 340:25 341:25 342:25 343:25 344:25 345:25 346:25 347:25 348:25 349:25 350:25 351:25 352:25 353:25 354:25 355:25 356:25 357:25 358:25 359:25 360:25 361:25 362:25 363:25 364:25 365:25 366:25 367:25 368:25 369:25 370:25 371:25 372:25 373:25 374:25 375:25 376:25 377:25 378:25 379:25 380:25 381:25 382:25 383:25 384:25 385:25 386:25 387:25 388:25 389:25 390:25 391:25 392:25 393:25 394:25 395:25 396:25 397:25 398:25 399:25 400:25 
0.626720134853764 1:25 2:25 3:25 4:25 5:25 6:25 7:25 8:25 9:25 10:25 11:25 12:25 13:25 14:25 15:25 16:25 17:25 18:25 19:25 20:25 21:25 22:25 23:25 24:25 25:25 26:25 27:25 28:25 29:25 30:25 31:25 32:25 33:25 34:25 35:25 36:25 37:25 38:25 39:25 40:25 41:25 42:25 43:25 44:25 45:25 46:25 47:25 48:25 49:25 50:25 51:25 52:25 53:25 54:25 55:25 56:25 57:25 58:25 59:25 60:25 61:25 62:25 63:25 64:25 65:25 66:25 67:25 68:25 69:25 70:25 71:25 72:25 73:25 74:25 75:25 76:25 77:25 78:25 79:25 80:25 81:25 82:25 83:25 84:25 85:25 86:25 87:25 88:25 89:25 90:25 91:25 92:25 93:25 94:25 95:25 96:25 97:25 98:25 99:25 100:25 101:25 102:25 103:25 104:25 105:25 106:25 107:25 108:25 109:25 110:25 111:25 112:25 113:25 114:25 115:25 116:25 117:25 118:25 119:25 120:25 121:25 122:25 123:25 124:25 125:25 126:25 127:25 128:25 129:25 130:25 131:25 132:25 133:25 134:25 135:25 136:25 137:25 138:25 139:25 140:25 141:25 142:25 143:25 144:25 145:25 146:25 147:25 148:25 149:25 150:25 151:25 152:25 153:25 154:25 155:25 156:25 157:25 158:25 159:25 160:25 161:25 162:25 163:25 164:25 165:25 166:25 167:25 168:25 169:25 170:25 171:37 172:25 173:50 174:25 175:25 176:25 177:25 178:25 179:25 180:25 181:25 182:25 183:25 184:25 185:25 186:25 187:25 188:25 189:25 190:25 191:62 192:87 193:25 194:25 195:25 196:25 197:25 198:25 199:25 200:25 201:25 202:25 203:25 204:25 205:25 206:25 207:25 208:25 209:25 210:25 211:125 212:87 213:25 214:25 215:25 216:25 217:25 218:25 219:25 220:25 221:25 222:25 223:25 224:25 225:25 226:25 227:25 228:25 229:37 230:249 231:187 232:37 233:25 234:25 235:25 236:50 237:25 238:37 239:25 240:25 241:25 242:25 243:25 244:25 245:25 246:25 247:25 248:25 249:25 250:212 251:174 252:25 253:25 254:25 255:25 256:62 257:62 258:25 259:25 260:25 261:25 262:25 263:25 264:25 265:25 266:25 267:25 268:25 269:25 270:37 271:25 272:25 273:25 274:25 275:112 276:255 277:25 278:25 279:25 280:25 281:25 282:25 283:25 284:25 285:25 286:25 287:25 288:25 289:25 290:25 291:25 292:25 293:25 294:25 295:62 296:75 297:25 298:25 299:25 300:25 301:25 302:25 303:25 304:25 305:25 306:25 307:25 308:25 309:25 310:25 311:25 312:25 313:25 314:25 315:25 316:25 317:25 318:25 319:25 320:25 321:25 322:25 323:25 324:25 325:25 326:25 327:25 328:25 329:25 330:25 331:25 332:25 333:25 334:25 335:25 336:25 337:25 338:25 339:25 340:25 341:25 342:25 343:25 344:25 345:25 346:25 347:25 348:25 349:25 350:25 351:25 352:25 353:25 354:25 355:25 356:25 357:25 358:25 359:25 360:25 361:25 362:25 363:25 364:25 365:25 366:25 367:25 368:25 369:25 370:25 371:25 372:25 373:25 374:25 375:25 376:25 377:25 378:25 379:25 380:25 381:25 382:25 383:25 384:25 385:25 386:25 387:25 388:25 389:25 390:25 391:25 392:25 393:25 394:25 395:25 396:25 397:25 398:25 399:25 400:25 
0.08515886871330707 1:25 2:25 3:255 4:25 5:25 6:25 7:25 8:25 9:25 10:25 11:25 12:25 13:25 14:25 15:25 16:25 17:25 18:25 19:25 20:25 21:25 22:37 23:25 24:25 25:25 26:25 27:25 28:25 29:25 30:25 31:25 32:25 33:25 34:25 35:25 36:25 37:25 38:25 39:25 40:25 41:25 42:25 43:25 44:25 45:25 46:25 47:25 48:25 49:25 50:25 51:25 52:25 53:25 54:25 55:25 56:25 57:25 58:25 59:25 60:25 61:25 62:25 63:25 64:25 65:25 66:25 67:25 68:25 69:25 70:25 71:25 72:25 73:25 74:25 75:25 76:25 77:25 78:25 79:25 80:25 81:25 82:25 83:25 84:25 85:25 86:25 87:25 88:25 89:25 90:25 91:25 92:25 93:25 94:25 95:25 96:25 97:25 98:25 99:25 100:25 101:25 102:25 103:25 104:25 105:25 106:25 107:25 108:25 109:25 110:25 111:25 112:25 113:25 114:25 115:25 116:25 117:25 118:25 119:25 120:25 121:25 122:25 123:25 124:25 125:25 126:25 127:25 128:25 129:25 130:25 131:25 132:37 133:50 134:25 135:25 136:25 137:25 138:25 139:25 140:25 141:25 142:25 143:25 144:25 145:25 146:25 147:25 148:25 149:25 150:25 151:25 152:25 153:25 154:37 155:25 156:25 157:25 158:25 159:25 160:25 161:25 162:25 163:25 164:25 165:25 166:25 167:25 168:25 169:25 170:25 171:25 172:212 173:25 174:25 175:25 176:25 177:25 178:25 179:25 180:25 181:25 182:25 183:25 184:25 185:25 186:25 187:25 188:25 189:37 190:87 191:187 192:100 193:25 194:25 195:37 196:25 197:25 198:25 199:25 200:25 201:25 202:25 203:25 204:25 205:25 206:25 207:25 208:25 209:37 210:75 211:125 212:25 213:25 214:25 215:25 216:25 217:25 218:25 219:25 220:25 221:25 222:25 223:25 224:25 225:25 226:25 227:25 228:25 229:25 230:37 231:37 232:25 233:25 234:25 235:25 236:25 237:25 238:25 239:25 240:25 241:25 242:25 243:25 244:25 245:25 246:25 247:25 248:25 249:25 250:37 251:25 252:25 253:25 254:25 255:25 256:25 257:25 258:25 259:25 260:25 261:25 262:25 263:25 264:25 265:25 266:25 267:25 268:25 269:25 270:25 271:25 272:25 273:25 274:25 275:25 276:25 277:25 278:25 279:25 280:25 281:25 282:25 283:25 284:25 285:25 286:25 287:25 288:25 289:25 290:25 291:25 292:25 293:25 294:25 295:25 296:25 297:25 298:25 299:25 300:25 301:25 302:25 303:25 304:25 305:25 306:25 307:25 308:25 309:25 310:25 311:25 312:25 313:25 314:25 315:25 316:25 317:25 318:25 319:25 320:25 321:25 322:25 323:25 324:25 325:25 326:25 327:25 328:25 329:25 330:25 331:25 332:25 333:25 334:25 335:25 336:25 337:25 338:25 339:25 340:25 341:25 342:25 343:25 344:25 345:25 346:25 347:25 348:25 349:25 350:25 351:25 352:25 353:25 354:25 355:25 356:25 357:25 358:25 359:25 360:25 361:25 362:25 363:25 364:25 365:25 366:25 367:25 368:25 369:25 370:25 371:25 372:25 373:25 374:25 375:25 376:25 377:25 378:25 379:25 380:25 381:25 382:25 383:25 384:25 385:25 386:25 387:25 388:25 389:25 390:25 391:25 392:25 393:25 394:25 395:25 396:25 397:25 398:25 399:25 400:25 
1 1:25 2:25 3:25 4:25 5:25 6:25 7:25 8:25 9:25 10:25 11:25 12:25 13:25 14:25 15:25 16:25 17:25 18:25 19:25 20:25 21:25 22:25 23:25 24:25 25:25 26:25 27:25 28:25 29:25 30:25 31:25 32:25 33:25 34:25 35:25 36:25 37:25 38:25 39:25 40:25 41:25 42:25 43:25 44:25 45:25 46:25 47:25 48:25 49:25 50:25 51:25 52:25 53:25 54:25 55:25 56:25 57:25 58:25 59:25 60:25 61:25 62:25 63:25 64:25 65:25 66:25 67:25 68:25 69:25 70:25 71:25 72:25 73:25 74:25 75:25 76:25 77:25 78:25 79:25 80:25 81:25 82:25 83:25 84:25 85:25 86:25 87:25 88:25 89:25 90:25 91:25 92:25 93:25 94:25 95:25 96:25 97:25 98:25 99:25 100:25 101:25 102:25 103:25 104:25 105:25 106:25 107:25 108:25 109:25 110:25 111:25 112:25 113:25 114:25 115:25 116:25 117:25 118:25 119:25 120:25 121:25 122:25 123:25 124:25 125:25 126:25 127:25 128:25 129:25 130:37 131:25 132:25 133:25 134:25 135:25 136:25 137:25 138:25 139:25 140:25 141:25 142:25 143:25 144:25 145:25 146:25 147:25 148:25 149:25 150:25 151:37 152:25 153:25 154:25 155:25 156:25 157:25 158:25 159:25 160:25 161:25 162:25 163:25 164:25 165:25 166:25 167:25 168:25 169:25 170:125 171:25 172:75 173:25 174:25 175:25 176:25 177:25 178:25 179:25 180:25 181:25 182:25 183:25 184:25 185:25 186:25 187:25 188:25 189:174 190:62 191:25 192:25 193:25 194:25 195:25 196:25 197:25 198:25 199:25 200:25 201:25 202:25 203:25 204:25 205:25 206:25 207:25 208:37 209:112 210:25 211:25 212:25 213:25 214:25 215:25 216:25 217:25 218:25 219:25 220:25 221:25 222:25 223:25 224:25 225:25 226:25 227:25 228:25 229:37 230:25 231:25 232:25 233:25 234:25 235:25 236:25 237:25 238:25 239:25 240:25 241:25 242:25 243:25 244:25 245:25 246:25 247:25 248:25 249:25 250:25 251:25 252:25 253:25 254:25 255:25 256:25 257:25 258:25 259:25 260:25 261:25 262:25 263:25 264:25 265:25 266:25 267:25 268:25 269:25 270:25 271:25 272:25 273:25 274:25 275:25 276:25 277:25 278:25 279:25 280:25 281:25 282:25 283:25 284:25 285:25 286:25 287:25 288:25 289:25 290:25 291:25 292:25 293:25 294:25 295:25 296:25 297:25 298:25 299:25 300:100 301:25 302:25 303:25 304:25 305:25 306:25 307:25 308:25 309:25 310:25 311:25 312:25 313:25 314:25 315:25 316:25 317:37 318:112 319:87 320:137 321:25 322:25 323:25 324:25 325:25 326:25 327:25 328:25 329:25 330:25 331:25 332:25 333:25 334:25 335:25 336:25 337:50 338:75 339:137 340:25 341:25 342:25 343:25 344:25 345:25 346:25 347:25 348:25 349:25 350:25 351:25 352:25 353:25 354:25 355:25 356:25 357:25 358:37 359:25 360:25 361:25 362:25 363:25 364:25 365:25 366:25 367:25 368:25 369:25 370:25 371:25 372:25 373:25 374:25 375:25 376:25 377:25 378:25 379:25 380:25 381:25 382:25 383:25 384:25 385:25 386:25 387:25 388:25 389:25 390:25 391:25 392:25 393:25 394:25 395:25 396:25 397:25 398:25 399:25 400:25 
1 1:25 2:25 3:25 4:25 5:25 6:25 7:25 8:25 9:25 10:25 11:25 12:25 13:25 14:25 15:25 16:25 17:25 18:25 19:25 20:25 21:25 22:25 23:25 24:25 25:25 26:25 27:25 28:25 29:25 30:25 31:25 32:25 33:25 34:25 35:25 36:25 37:25 38:25 39:25 40:25 41:25 42:25 43:25 44:25 45:25 46:25 47:25 48:25 49:25 50:25 51:25 52:25 53:25 54:25 55:25 56:25 57:25 58:25 59:25 60:25 61:25 62:25 63:25 64:25 65:25 66:25 67:25 68:25 69:25 70:25 71:25 72:25 73:25 74:25 75:25 76:25 77:25 78:25 79:25 80:25 81:25 82:25 83:25 84:25 85:25 86:25 87:25 88:25 89:25 90:25 91:25 92:25 93:25 94:25 95:25 96:25 97:25 98:25 99:25 100:25 101:25 102:25 103:25 104:25 105:25 106:25 107:25 108:25 109:25 110:25 111:25 112:25 113:25 114:25 115:25 116:25 117:25 118:25 119:25 120:25 121:25 122:25 123:25 124:25 125:25 126:25 127:25 128:25 129:25 130:25 131:25 132:25 133:25 134:25 135:25 136:25 137:25 138:25 139:25 140:25 141:25 142:25 143:25 144:25 145:25 146:25 147:25 148:25 149:25 150:25 151:25 152:25 153:25 154:25 155:25 156:25 157:25 158:25 159:25 160:25 161:25 162:25 163:25 164:25 165:25 166:25 167:25 168:25 169:25 170:37 171:25 172:25 173:25 174:25 175:25 176:25 177:25 178:25 179:25 180:25 181:25 182:25 183:25 184:25 185:25 186:25 187:25 188:25 189:25 190:149 191:25 192:25 193:25 194:25 195:25 196:25 197:25 198:25 199:25 200:25 201:25 202:25 203:25 204:25 205:25 206:25 207:25 208:25 209:100 210:62 211:25 212:25 213:25 214:25 215:25 216:25 217:25 218:25 219:25 220:25 221:25 222:25 223:25 224:25 225:25 226:25 227:25 228:25 229:25 230:25 231:25 232:25 233:25 234:25 235:25 236:25 237:25 238:25 239:25 240:25 241:25 242:25 243:25 244:25 245:25 246:25 247:25 248:25 249:37 250:25 251:25 252:25 253:25 254:25 255:25 256:25 257:25 258:25 259:25 260:25 261:25 262:25 263:25 264:25 265:25 266:25 267:25 268:25 269:25 270:25 271:25 272:25 273:25 274:25 275:25 276:25 277:25 278:25 279:25 280:25 281:25 282:25 283:25 284:25 285:25 286:25 287:25 288:25 289:25 290:25 291:25 292:25 293:25 294:25 295:25 296:25 297:25 298:25 299:25 300:25 301:25 302:25 303:25 304:25 305:25 306:25 307:25 308:25 309:25 310:25 311:25 312:25 313:25 314:25 315:25 316:25 317:25 318:25 319:25 320:25 321:25 322:25 323:25 324:25 325:25 326:25 327:25 328:25 329:25 330:25 331:25 332:25 333:25 334:25 335:25 336:25 337:25 338:25 339:25 340:25 341:25 342:25 343:25 344:25 345:25 346:25 347:25 348:25 349:25 350:25 351:25 352:25 353:25 354:25 355:25 356:25 357:25 358:25 359:25 360:25 361:25 362:25 363:25 364:25 365:25 366:25 367:25 368:25 369:25 370:25 371:25 372:25 373:25 374:25 375:25 376:25 377:25 378:25 379:25 380:25 381:25 382:25 383:25 384:25 385:25 386:25 387:25 388:25 389:25 390:25 391:25 392:25 393:25 394:25 395:25 396:25 397:25 398:25 399:25 400:25 
0.8763337599165588 1:25 2:25 3:25 4:25 5:25 6:25 7:25 8:25 9:25 10:25 11:25 12:25 13:25 14:25 15:25 16:25 17:25 18:25 19:25 20:25 21:25 22:25 23:25 24:25 25:25 26:25 27:25 28:25 29:25 30:25 31:25 32:25 33:25 34:25 35:25 36:25 37:25 38:25 39:25 40:25 41:25 42:25 43:25 44:25 45:25 46:25 47:25 48:25 49:25 50:25 51:25 52:25 53:25 54:25 55:25 56:25 57:25 58:25 59:25 60:25 61:25 62:25 63:25 64:25 65:25 66:25 67:25 68:25 69:25 70:25 71:25 72:25 73:25 74:25 75:25 76:25 77:25 78:25 79:25 80:25 81:25 82:25 83:25 84:25 85:25 86:25 87:25 88:25 89:25 90:25 91:25 92:25 93:25 94:25 95:25 96:25 97:25 98:25 99:25 100:25 101:25 102:25 103:25 104:25 105:25 106:25 107:25 108:25 109:25 110:25 111:25 112:25 113:25 114:25 115:25 116:25 117:25 118:25 119:25 120:25 121:25 122:25 123:25 124:25 125:25 126:25 127:25 128:25 129:25 130:25 131:25 132:25 133:25 134:25 135:25 136:25 137:25 138:25 139:25 140:25 141:25 142:25 143:25 144:25 145:25 146:25 147:37 148:25 149:25 150:37 151:25 152:25 153:25 154:25 155:25 156:25 157:25 158:25 159:25 160:25 161:25 162:25 163:25 164:25 165:25 166:25 167:25 168:25 169:50 170:100 171:25 172:25 173:25 174:25 175:25 176:25 177:25 178:25 179:25 180:25 181:25 182:25 183:25 184:25 185:25 186:25 187:25 188:25 189:187 190:125 191:25 192:37 193:25 194:25 195:25 196:25 197:25 198:25 199:25 200:25 201:25 202:25 203:25 204:25 205:25 206:25 207:25 208:199 209:174 210:25 211:25 212:25 213:25 214:25 215:25 216:25 217:25 218:25 219:25 220:25 221:25 222:25 223:25 224:25 225:25 226:25 227:50 228:137 229:137 230:25 231:25 232:25 233:25 234:25 235:25 236:25 237:25 238:25 239:25 240:25 241:25 242:25 243:25 244:25 245:25 246:25 247:37 248:37 249:25 250:25 251:25 252:25 253:25 254:25 255:25 256:25 257:25 258:25 259:25 260:25 261:25 262:25 263:25 264:25 265:25 266:25 267:25 268:25 269:25 270:25 271:25 272:25 273:25 274:25 275:25 276:25 277:25 278:25 279:25 280:25 281:25 282:25 283:25 284:25 285:25 286:25 287:25 288:25 289:25 290:25 291:25 292:25 293:25 294:25 295:25 296:25 297:25 298:25 299:25 300:25 301:25 302:25 303:25 304:25 305:25 306:25 307:25 308:25 309:25 310:25 311:25 312:25 313:25 314:25 315:25 316:25 317:25 318:25 319:25 320:25 321:25 322:25 323:25 324:25 325:25 326:25 327:25 328:25 329:25 330:25 331:25 332:25 333:25 334:25 335:25 336:25 337:25 338:25 339:25 340:25 341:25 342:25 343:25 344:25 345:25 346:25 347:25 348:25 349:25 350:25 351:25 352:25 353:25 354:25 355:25 356:25 357:25 358:25 359:25 360:25 361:25 362:25 363:25 364:25 365:25 366:25 367:25 368:25 369:25 370:25 371:25 372:25 373:25 374:25 375:25 376:25 377:25 378:25 379:25 380:25 381:25 382:25 383:25 384:25 385:25 386:25 387:25 388:25 389:25 390:25 391:25 392:25 393:25 394:25 395:25 396:25 397:25 398:25 399:25 400:25 
